7.415822763810692777e+02;8.342899274160777168e+02;7.793936449084264950e+02;-4.084946638086211124e+01;6.418221540410559101e+02;6.717436745100094697e+00;7.896619144254635785e+02;6.273742704986889294e+02;-4.024453606635201197e+01;8.616416390215890715e+02;7.481363040285623356e+02;7.700995236172970237e+01;8.655491082052893717e+02;1.268925239003477827e+02;9.420543637979554319e+01;8.700913802994897424e+02;3.919402788750101081e+02;7.691053685588011604e+02;4.798609287002045676e+02;4.465066627847228915e+02;7.044469929102062906e+02;1.752897875533148238e+02;2.509968672492121016e+02;8.753875272494442470e+02;8.310675347506561366e+02;4.909093312040523216e+01;6.592890346113525766e+02;-2.396109093409059199e+01;-2.872396884663017680e+00;5.359207416030958484e+02;5.206296862937416563e+02;8.638731242267547259e+02;1.616075725293657968e+02;4.270071034005335520e+01;1.737971638325346362e+02;5.974321377959792017e+02;7.209833753245160324e+02;2.893849900472519607e+02;8.075993245185474052e+02;6.317817857088498101e+01;-3.285663512943274611e+01;-3.697805460800507760e+00;5.879035197535359885e+02;1.675456522607212833e+02;1.778584640219618791e+02;-5.733201199411019644e+01;4.430215023744494260e+02;8.860606477531454175e+02;1.599857723290415379e+01;2.433919385651782363e+02;3.143022292417203971e+02;3.321563305151544299e+00;2.540437850032996607e+02;-6.470441421516567004e+01;6.516205870132218934e+02;7.604956726029637366e+02;6.215326706410980933e+02;8.390136720606731160e+02;8.433458965972570240e+02;8.686704948028764193e+02;7.846778413135840538e+02;1.300679579097802119e+01;8.776138055028563940e+02;4.251227302023672792e+02;8.545811988731633164e+02;5.745127035553275618e+02;7.727098729211360251e+02;8.691009786348581656e+02;3.572808871568310565e+02;-3.702958784384770752e+01;8.574133233829056735e+02;8.866493638059325804e+02;1.545134092822984542e+02;8.156453144324443656e+02;4.767247932269338406e-01;6.139876574500419792e+02;1.492555580559413784e+02;8.050317788081955541e+02;8.099395623169823466e+02;5.912619159022399344e+02;6.607662355870390911e+02;8.390892303805760548e+02;-2.609088734565607126e+01;1.461281652993828857e+02;-3.835740621877369705e+01;8.538582022363037822e+02;8.258557307747736331e+02;4.490187165076721776e+00;5.805533910073172592e+02;4.392599481861660706e+02;2.472532858082133771e+02;7.439221742247920020e+02;7.040843095701460470e+02;1.830345681973822707e+02;7.954548614500941639e+00;-4.691366399132914466e+01;1.847581074659427713e+02;1.713935295714816220e+02;8.682595873810587364e+02;7.692797654676696766e+02
-3.230942169793900121e+01;-4.015030988638612541e+01;-2.973058975302038576e+01;2.458878957681712052e+00;-3.728962588339305739e+01;4.317007522795266006e+00;-2.810428883767928454e+01;-3.614007346364537909e+01;9.286393939450089619e+00;-4.220101409745083743e+01;-3.509649807670366073e+01;-5.634410391229418558e+00;-4.199855694068557455e+01;-1.837430400092279825e+01;-1.288087950349047794e+01;-1.440513507644719482e+01;-6.108425580652466991e+00;-4.188956846430532721e+01;-1.987145860668503161e+01;-3.059900365334635453e+01;-3.235939911932808855e+01;-7.358792080915834255e+00;-7.649615354958184454e+00;-2.468454974238418842e+01;-5.575113017286771822e+01;-1.452758000198275923e+01;-4.459412677903598876e+01;3.963038237534598274e+00;4.316085542205731151e+00;-3.537021947213919759e+01;-4.989372817873529442e+01;-3.736503248532650900e+01;-1.207193478624831329e+01;-6.520095015129371951e+00;-1.327504066141082539e+01;-2.907107588482303129e+01;-3.307770532897205840e+01;-2.507477054066989908e+01;-4.256364968262150228e+01;-4.698199583264550228e+00;2.526570563901447031e+01;-1.061801232339040091e+01;-3.960799089548457630e+01;-1.688554030255719596e+01;-2.793813284309139000e+00;4.723832759571591211e+00;-3.368725377412726374e+01;-3.344982994836308166e+01;-6.893758038879940209e-01;-1.992302804980071684e+01;-1.097679206974882682e+01;2.454068801560700841e+00;-9.349197649173730085e+00;-1.017103032922330064e+00;-2.340941336135773909e+01;-1.835272075569115557e+01;-2.574443318441569772e+01;-4.203745182952576442e+01;-4.148437475101957261e+01;-4.591116003998351403e+01;-2.603862146466791927e+01;-1.310189244179329471e+01;-3.572233328283679299e+01;-1.996149053345081015e+01;-4.421121127266000173e+01;-4.542677383138754976e+01;-4.052004627945684945e+01;-3.493113016363371770e+01;-1.005832937765504376e+01;2.886435467232510987e+00;-5.351439867144439688e+01;-3.878104042064135371e+01;-4.706837267799887314e+00;-4.714160155594691304e+01;-1.327903196473013914e+01;-3.700457690353092488e+01;-1.732455274105096876e+01;-4.124673892787233598e+01;-3.824877629940453971e+01;-4.232058036288896119e+01;-2.406498526047937858e+01;-4.025028989239781652e+01;7.081132358660052972e+00;-1.436190637466273401e+01;3.832596201845906769e+00;-3.958758788035385123e+01;-2.415957846260488040e+01;-9.738236199132419557e-01;-2.892855716574840130e+01;-1.556409679283355096e+01;-1.656050012328264742e+01;-2.170991818899410220e+01;-3.476097383452255940e+01;-2.984249870632242008e+01;-7.790974100700951865e+00;8.644502491295776636e+00;-9.656346377001881365e+00;-1.227709644964711977e+01;-4.552646095339825649e+01;-3.637642183068994228e+01
9.905107282695720272e+00;1.149591510768387170e+00;-6.419982708191645848e+00;2.446319671847190946e+01;5.365175969538066303e-01;1.049126272397430171e+01;-3.895274000380752000e+00;5.922660737740017112e+00;4.871856608406640987e+01;4.191984705037236303e+00;6.321166065274297807e+01;-1.878507046925246371e+01;7.550098159554741528e+01;-3.046444412096509069e+01;-3.305014318875558388e+01;8.101556376527653924e+01;-3.496722583563934705e+01;-3.232092373069885838e+01;2.006949189906721998e+00;-1.594333306327551902e+01;-5.682770409931568345e+00;-1.652388076616292167e+01;-1.946288903791882419e+01;3.296709287924034726e+01;-3.507873658649876347e+01;-4.813345344525048120e+01;4.333729326429516249e+00;1.853840134547319352e+01;3.665612253098618112e+01;7.821877125916091522e+00;-1.119390288251520360e+01;4.410240803823437972e+00;-2.959450456284987929e+00;-2.262440486327015776e+01;-1.589710647097180907e+00;5.390767376205524819e+00;-5.362797813026071170e-01;-1.494840280656967835e+00;5.872094933006853701e+00;-3.369711314231072663e+01;8.080418972228031294e+01;-3.028226921753384460e+01;-1.650174546816240806e+01;-5.446580800586541926e+01;-2.120899797536401721e+01;7.139090320352759811e+00;-1.419963534581589215e+01;2.368749049395660222e+01;-1.936760668692133081e+01;-2.074524145798761410e+01;-2.621305161574957743e-02;1.942145319827752914e+01;-5.965433320020296470e+00;-3.804267179003111465e+01;8.285082960452136547e+00;4.207234029901838923e+00;-9.693859489986222044e+00;4.336635949301893334e+00;-1.321677480715568231e+00;2.383861581970409205e+00;-1.195179966126528797e+02;-1.375710611067149536e+00;2.166230725435620741e+01;-4.679898594749262175e-01;8.820953419434472309e+00;-2.504189720876769343e+01;7.919931544642272669e+00;-1.739299269242001955e+01;1.802572484486904214e+00;-9.324993191144072213e+00;1.566646994500381673e+01;9.239610076672695982e+01;-1.575316915724750189e+01;5.692649685460589026e+00;-5.385214122563690609e+01;8.870883862437888290e-01;-2.446649258863326182e+00;-4.990642919633707209e+00;-5.641976284275431741e-01;-1.098433648009739905e+01;-5.136828641220867908e+00;-5.793553991842439466e+00;3.309988041994346020e+01;-8.412406867310945557e+00;2.968023122776473066e+00;1.539706940301214910e+00;1.452372441769961142e+01;1.667640042057358940e+00;-1.113677092216311060e+01;1.034379398798339800e+01;-3.433186939658149583e+01;-7.258830249138894430e+01;-3.525416539870349197e+01;-8.801874745240183984e+01;-2.696148085971888975e+01;5.215865289778446368e+01;-3.065645880972854798e+01;-7.367614173404226641e-01;1.050345576531567637e+01;6.047201883746397000e-01
-1.784246809218376129e+01;-3.714712492824186540e+01;1.007751676740295288e+01;2.833276736297045773e+01;-3.604271211478739190e+01;4.481883873650783556e+01;1.016742327556493386e+01;-3.441552864913055032e+01;4.324019756577148854e+01;-1.587322086694966750e+01;6.934098810642399968e+00;-1.622297609219485537e+01;1.665587048620268718e+01;-4.966725730616172996e+01;-5.560816497295185457e+01;4.284980105088530777e+00;-2.260889409548318696e+01;-2.286945275970149893e+01;-5.274479213528877608e+01;-5.335116350560146969e+01;-2.765494313596473930e+01;-4.907713561357350329e+01;-2.369390354071918736e+01;1.386512658722734059e+01;-1.952600345884932365e+00;-8.338099811778315029e+01;-4.940612490016088287e+01;2.316553746761209354e+01;7.082666969000467105e+00;-4.120808326238118724e+01;-9.569508727595109576e+01;1.482737476924807396e+01;-6.065870037500352652e+01;-5.030256720227960443e+01;-7.917137533378196679e+01;-5.276403724074326007e+00;7.140677840726121772e-01;-4.136179577968787413e+01;7.922691184119488028e-01;-4.699240152267208970e+01;7.330560517621536576e+01;-6.606745764400950804e+01;-5.228595774322754153e+01;-5.961376319121131928e+01;-2.454148864052448786e+01;5.100574906172922196e-01;-6.954454846589273131e+01;1.177747027734406871e+01;-5.307974316786550517e+00;-7.644978763250719567e+01;-6.357304305542874090e+01;1.662506785915196872e+01;-5.174505819113119287e+01;2.605172416161408933e+01;-2.085081886825993891e+01;1.086855296340429966e+01;-1.372303406135781501e+01;-1.739436288911426232e+01;-2.663434910920743093e+01;7.449568263738770568e+00;-1.640739553031329834e+01;-5.424564212562234644e+01;4.526607717050445068e+00;-2.393089411431289903e+01;-3.887939098010689776e+01;-5.459283725455749448e+01;-1.572835313948535862e+01;-5.201540321627185826e+00;-3.626621081439655825e+01;2.468373819974082650e+01;-2.338475643249374158e+01;4.346954076324783145e+00;-2.800158666440393773e+01;3.531814402726904945e+00;-7.493625913514794945e+01;-3.264374221092479900e+01;-6.008831577215271125e+01;-2.118229297308620929e+01;6.683620138356411111e+00;-4.558490461510472613e+01;4.159180094755879686e+00;-1.964861266104409410e+01;2.690049733280076794e+01;-4.951810841943720476e+01;6.741295859444122129e+00;1.349574075992341449e+01;1.516422563737151918e+01;-2.386860976712867455e+01;-2.619408275739916903e+01;2.871161781115683542e+00;-7.064700687156290826e+01;-2.160928313545613122e+01;-1.310341025428303041e+01;-8.678289559550279364e+01;-5.988764800347131256e+01;2.687784933690753775e+01;-3.877638660636702639e+01;-6.410773997946124325e+01;-2.884609249898634786e+01;1.315361897402228131e+01
-2.585952807931393949e+01;3.375321717068225524e+01;5.779744226890208836e+00;2.144781331239400402e+00;-1.604437498188626989e+02;-2.568805971999155169e+00;3.725950833754591685e+01;-1.233497418474352543e+02;5.529233369136217391e+01;9.508165960429168706e+01;-1.896882915373601008e+01;2.648674753427154016e+01;-2.359610580812532277e+00;-8.559064741293046552e+01;-3.382617614537498696e+01;5.977180101208703888e+01;-2.641084134942104455e+01;-1.817627956567692422e+02;-4.410622068768487480e+01;-1.093787230418926981e+02;4.055568055209135991e+01;-2.600059158653601799e+01;-3.274909239259088878e+01;2.599298328303394356e+01;-2.496697470579107971e+02;9.184575382783744857e+00;-1.879852691205652206e+02;-3.025139722221342709e+02;6.671955963329347128e+01;-1.477989836779124175e+02;-1.717130442398251375e+02;1.354141215353857852e+01;-2.444956092494628308e+01;-6.679262697900482237e+01;-4.694386387294370167e+01;-9.673410894946616168e+01;-2.555773577641408423e+01;-5.378990442305241260e+01;-4.783822649691182960e+01;-6.385742361050205318e+01;5.881143324544291318e+01;-5.087080727537826874e+01;-1.516646946367828832e+02;-9.429182132984037423e+01;-5.471161152622918422e+01;4.788850202879412166e+01;-1.180909074422820311e+02;4.890302889733497693e+01;-3.946797101183821610e+01;-3.999097042375718303e+01;-4.366876011289824078e+01;-1.023816026887428698e+01;-4.260971354594065019e+01;-3.375418603164301885e+02;-1.003707554757833975e+02;1.916390075081226740e+01;-1.380724709326766231e+02;3.911692688454702704e+01;1.053558969357341368e+01;-5.463670627716470563e+01;6.842487762419242614e+00;-2.005728472172761201e+01;-9.669986881593162664e+00;-5.208227736807791075e+01;1.512716414806864229e+01;-1.680122246320094064e+02;-1.273483506990203580e+02;1.042172432910371604e+01;-3.439525785095352717e+01;-3.122324838743479063e+02;-2.701895768506502122e+02;1.309629552662518392e+02;-5.671147208262291883e+01;-1.528395469513637011e+02;-5.632218505993876079e+01;-1.764221136508477343e+02;-4.591565037168971486e+01;-8.362583763439477025e+01;-4.364137913165409799e+01;-2.284657159318460913e+02;5.932688352790004060e+00;8.260352902199318947e+00;3.781061698359744128e+01;-5.059471611779545697e+01;-2.694468650744386764e+02;-3.250175522024673569e+01;2.205541854887786002e+01;-1.204769705326564910e+01;-1.319880664408459836e+02;-2.317560068805363827e+01;-8.097018585324300943e+01;-9.715500508794876922e+00;-1.064337023239068856e+02;-6.483018818484680423e+00;-4.255559446932466017e+01;6.309156216491314240e+01;-7.887892396065926448e+01;-3.029189938539110827e+01;3.655830065019909370e+01;-6.246042483749258167e+01
2.911556177381746693e+03;3.295869342042065909e+03;3.053418257592563350e+03;-1.675478050145311215e+02;2.560762883845331544e+03;9.880795630959852360e+00;3.084937207944501552e+03;2.498332488066366750e+03;-1.855466961075465804e+02;3.406911557226591412e+03;2.951840331416152367e+03;3.082035726405190417e+02;3.419073882537946247e+03;5.406012010450810976e+02;4.087960147457641256e+02;3.348509071076946839e+03;1.506945523908060977e+03;3.062390816214649476e+03;1.893685616807577162e+03;1.789122031905220183e+03;2.779742752228638892e+03;6.997056391154884523e+02;9.716753483072870949e+02;3.399107676427799106e+03;3.343713295456143442e+03;2.413916664228085835e+02;2.651511562463854261e+03;-1.063925747761516476e+02;-2.616594886401177078e+01;2.153933461105065817e+03;2.146146126814507625e+03;3.393105856819373457e+03;6.556504555950501754e+02;1.822119125959821986e+02;7.154128893333761425e+02;2.354322236465486640e+03;2.843105965780084261e+03;1.177964991232166994e+03;3.201568499169733514e+03;2.592027255102768777e+02;-2.102571105501396289e+02;1.875461029714815098e+01;2.356898960313791576e+03;7.116087932219010099e+02;6.786129964728872892e+02;-2.320906511318532921e+02;1.795479945530715440e+03;3.469219330684179567e+03;6.098460764148947533e+01;9.843307569084209945e+02;1.226387883802581882e+03;1.131165676124045305e+01;9.961081649470352204e+02;-2.448304045655356163e+02;2.553080228437373080e+03;2.933410841559062192e+03;2.443863665905424114e+03;3.322114657734191951e+03;3.333834705492242392e+03;3.441916252931895997e+03;3.066065759401983996e+03;9.362354658330565371e+01;3.450504611333761659e+03;1.687377949166893131e+03;3.386227689801515226e+03;2.333659585558320941e+03;3.067005981726769278e+03;3.406162717500602866e+03;1.387888989157577498e+03;-1.546552531995702680e+02;3.422881131341380296e+03;3.490164407574757206e+03;5.905576798399794143e+02;3.247362747950436187e+03;4.317540339734577515e+01;2.448731024004073788e+03;6.304996194148706081e+02;3.186392178401978981e+03;3.196197491993893436e+03;2.389535191952283185e+03;2.587698843084861437e+03;3.321240255356294711e+03;-1.192197291606865264e+02;6.104006791134045216e+02;-1.580708992407420794e+02;3.372528637121587508e+03;3.207251884920710836e+03;1.755262477381847930e+01;2.284627928146981503e+03;1.708758021789440363e+03;1.008813251815633066e+03;2.894472647186502400e+03;2.784275055358110421e+03;7.926694526588128156e+02;5.593693022448896102e+01;-2.035262811348198682e+02;7.204726924397298262e+02;6.823529683675153592e+02;3.442821588376677937e+03;3.032780576079884668e+03
2.903984446044752985e+03;3.288190769087314948e+03;3.046210667108013240e+03;-1.658921631060187281e+02;2.550125136751682476e+03;9.246500249504396862e+00;3.077076313886343542e+03;2.493496841638934711e+03;-1.844376563305996228e+02;3.396865074409100089e+03;2.944446656203053408e+03;3.069367566180113158e+02;3.409922230054095053e+03;5.405917748179933824e+02;4.080593864279752552e+02;3.340698476259698964e+03;1.504102432790227340e+03;3.054084130247228131e+03;1.888688738861912952e+03;1.785738500480940274e+03;2.772105508428648136e+03;6.923580922509570428e+02;9.703813719134187750e+02;3.390671302490145081e+03;3.335282726862547406e+03;2.385769777430909073e+02;2.644714527860307953e+03;-1.054957222240536083e+02;-2.569342106900509393e+01;2.148323771123573351e+03;2.141713589902241438e+03;3.385723239703096624e+03;6.532176169135598229e+02;1.824170937422180714e+02;7.108997049812331852e+02;2.350108111481531978e+03;2.836543765721775799e+03;1.173955624237717302e+03;3.194265894610191026e+03;2.582919160503855665e+02;-2.104690258718611062e+02;1.873691011908807980e+01;2.353493236066374720e+03;7.082640475734176562e+02;6.774775300814646926e+02;-2.319649764265571434e+02;1.793878831917502112e+03;3.460987513721063806e+03;6.028171659381048642e+01;9.843896716737315273e+02;1.223111878106177983e+03;1.148513984393914100e+01;9.928080449559995486e+02;-2.433167569938646579e+02;2.547918398368801263e+03;2.928822848865961532e+03;2.437871168253921951e+03;3.312109952040899771e+03;3.325795417529805036e+03;3.434438960239034714e+03;3.057966497726696161e+03;9.245652154413497215e+01;3.442835765949580036e+03;1.680559150944830435e+03;3.378672379684075167e+03;2.326070002472041779e+03;3.059011433897735515e+03;3.397965391321206880e+03;1.381618301471261930e+03;-1.551567686333551137e+02;3.414964015064556861e+03;3.480907602598642825e+03;5.921602335873161564e+02;3.239091442365104740e+03;4.335832059045253573e+01;2.440835738054020112e+03;6.266030321921846280e+02;3.178934570879746389e+03;3.188646234412598915e+03;2.382143088359159265e+03;2.579940223219377458e+03;3.311628128997163458e+03;-1.165976780722508579e+02;6.074508551456082159e+02;-1.569657832595838158e+02;3.364903749690106906e+03;3.199395640241538786e+03;1.876868089752908730e+01;2.282359640637139819e+03;1.706939328639081168e+03;1.003441493518605284e+03;2.888501814890260903e+03;2.777566350706407775e+03;7.906079854438827397e+02;5.485985973069582400e+01;-2.024093053123693551e+02;7.221521792189419102e+02;6.800356544241793699e+02;3.433758938074983234e+03;3.027948847874228250e+03
-1.642177791069752857e+01;-4.603588918973316879e+01;1.121756622718718255e+01;5.115706633072549359e+00;-1.707480417127299432e+01;4.254976341391071948e+00;2.294710219657426364e+01;-1.397574648916554274e+01;8.744767393086405605e+01;1.291816250570292013e+01;4.514067268180381731e+00;-1.464525871681416724e+01;1.519745349825029912e+01;-7.219760589898713476e+01;-7.949510070995599165e+01;3.882637554903443800e+01;-4.578129668423870413e+01;2.001063941469215024e+01;-5.415872927995899033e+01;-5.106334652765933413e+01;-4.815559095147921909e+01;-8.747061222465357844e+01;-3.759571282914636470e+01;1.851775015459483242e+01;5.961770349674493019e+01;-1.407686858004153123e+02;-2.346881188164729792e+01;9.305864106952260073e+00;1.336599518363708583e+01;-2.023409000971975757e+01;-8.331663756052432745e+01;1.607826742360887096e+01;-7.874607941160610380e+01;-6.398508783665808153e+01;-9.798571464012918852e+01;5.702146715760822993e+00;-1.983754487857815052e+00;-5.496981935991866663e+01;3.438705149072513478e+01;-6.457654467460774583e+01;1.100904229036401887e+02;-9.891432830622346728e+01;-4.244612967290073868e+01;-1.015760441730060961e+02;-4.996215628801446940e+01;-2.774013420792630136e+00;-7.579842134710780499e+01;4.056093141524097945e+01;-1.363919865335607007e+01;-1.126080898478522556e+02;-8.673107876297360974e+01;9.849270682569935431e+00;-7.745402869568678739e+01;1.153178814568534349e+01;-4.085689927850877368e-02;9.380314847320549987e+00;-3.469848850417317498e-01;2.175504310172581057e+00;-1.604684815336750248e+01;3.480812837893769540e+01;-3.788935618224745561e+00;-7.751821762615345790e+01;7.179708693225092198e+00;-2.339940904085682405e+01;-4.386406271306486815e+01;-3.922390851744452078e+01;2.504369199986961547e+01;1.069381886066634735e+01;-4.838602928797295988e+01;-4.805357297271510397e+00;3.264270098609000570e+01;4.182826418972943117e+01;-2.564032122247116519e+01;5.652797720301072815e+01;-1.038764657824640949e+02;-1.333642886312096110e+01;-9.169853086659442454e+01;1.988501216079241729e+01;3.334021980817141895e+01;-2.340626901537432047e+01;3.542776483270625221e+00;-1.655655137433397428e+01;5.368778066764259194e+01;-8.892545740489697437e+01;1.652854210918446043e+01;1.810286052778336341e+01;2.089944539486714703e+01;-4.805852612711174743e+01;-1.006300939319492471e+01;-3.042632100613054114e+00;-9.958820227093271171e+01;-1.174618303991536372e+01;1.359800376953366730e+01;-1.365004239899868992e+02;-8.360615674399159047e+01;5.209117176687478690e+01;-5.958280444401366793e+01;-9.498819089548430838e+01;-6.379144771929815327e+00;1.748156287578504120e+01
2.346796492220202879e+01;-4.802914616630463485e+00;-5.718924584612061768e-02;-1.238429378848694196e+00;-1.900096328417888856e+02;8.254087788395880310e+00;-1.556856598977946859e+01;-1.581155971943983047e+02;-9.083841852322249721e+00;-2.514316858554771272e+01;-1.211379065054469517e-01;-4.269613614514042155e+01;6.743988271824982839e+00;-9.736011084143753180e+01;-6.018559955539841866e+01;-3.278527495306789064e+01;-8.123850914251809741e+01;-2.202085264346253553e+02;-4.618829875977970545e+01;-1.098514385363661461e+02;-6.199091847161136926e+00;-4.639048229448732030e+01;-5.016464612503572340e+01;-2.908193712971017675e+01;-3.003769047600391673e+02;-2.212299597154349939e+01;-2.174298120371603602e+02;-3.241743602744013515e+02;-1.934705827729339234e+01;-1.527884228318218618e+02;-1.790906594738665945e+02;5.957018453217721543e+01;-4.051398802671568689e+01;-1.287595251355531047e+02;-2.664433462002920550e+01;-1.196438796889895002e+02;1.404484901248165585e+01;-2.721911958465734926e+01;-5.124742722901790160e+01;-9.671831306836149622e+01;-4.965028832069562270e+01;-7.098467540721489399e+01;-1.767882452734729668e+02;-5.959245461365565433e+01;-5.061701145601799823e+01;-1.706345724915765771e+01;-1.116113496434450383e+02;-3.152691968226124430e+01;-1.463299522319873915e+02;-2.592041574936700599e+01;-5.275975899941373370e+01;5.671977782117998856e+00;-3.845850323715058039e+01;-3.734589957882687941e+02;-9.546207984802103397e+01;-2.113902738725358432e+01;-1.582623457000044880e+02;2.854538194611900170e+00;3.692162434942466431e-01;-1.021484948233247110e+02;-4.809967082160859064e+01;-3.766496031354266449e+01;-1.490516889043258253e+01;-4.589100238055102920e+01;1.641494789695510903e+01;-1.901667632155468368e+02;-1.564546886731426696e+02;1.275763662826503442e+01;-3.460675400930168166e+01;-3.102981388619224958e+02;-3.106151926903838785e+02;-2.523274342764111822e+01;-5.754918082985336980e+01;-1.477924613155812210e+02;-4.244450947102980365e+01;-1.986663638899156581e+02;-5.206881734307849996e+01;-9.402447849838662819e+01;-2.602903736850644378e+01;-2.503803840039478246e+02;-1.847929679615737086e+01;6.294127155421304742e+00;-2.994029373582520748e+01;-8.629010723506829095e+01;-2.227817047292840584e+02;-4.551815441139843443e+01;-2.392583848201307006e+01;-2.513232732307807282e+01;-1.510793332378185312e+02;-1.011456276514117469e+01;-4.656068365008523813e+01;-2.973151405735941921e+01;-1.205734941755167711e+02;-1.390438712905876173e+00;-5.692676842236645030e+01;-1.860215947473987796e+01;-6.991629734320481759e+01;-3.993954143093686326e+01;-2.407053202809277259e+00;-5.323664927840969341e+01
2.888026869930994962e+03;3.269237478369909240e+03;3.031238093921825111e+03;-1.661631997018101856e+02;2.537879086586922313e+03;8.855089276737537318e+00;3.063887925958523738e+03;2.479191032388347139e+03;-1.816467278385272550e+02;3.379951987409725461e+03;2.928191303871226864e+03;3.053283339421190590e+02;3.392140872604917149e+03;5.343569930323618564e+02;4.039569157263645138e+02;3.329919214482834377e+03;1.502680579992233334e+03;3.036685379868431937e+03;1.877173137518552721e+03;1.775727326228345873e+03;2.757234113298445664e+03;6.908020247761389783e+02;9.649648703554913709e+02;3.376741038771477179e+03;3.311971297596538989e+03;2.351713755563961570e+02;2.628893935661986234e+03;-1.061188947824580993e+02;-2.546302149699739914e+01;2.136339963317117054e+03;2.121087566573120966e+03;3.367203764371777652e+03;6.492915944661505137e+02;1.813879995757818335e+02;7.055146789644027194e+02;2.338842098342304780e+03;2.822205351201511348e+03;1.164981969427160493e+03;3.177368537705140170e+03;2.581790486351523555e+02;-2.021368174196171594e+02;1.585498552748211054e+01;2.338522022210562227e+03;7.006385805063271164e+02;6.753089917522302130e+02;-2.303393469955071851e+02;1.780320938258122396e+03;3.444461815263769040e+03;6.121693322534182613e+01;9.732899226632927139e+02;1.215307212084265302e+03;1.070245533292476203e+01;9.908984045471130457e+02;-2.434734864962019287e+02;2.534263392018801369e+03;2.921175413904658853e+03;2.423771974157828481e+03;3.295377293719985119e+03;3.307942687327614749e+03;3.414189872441887928e+03;3.043726874319813760e+03;8.917730713405632059e+01;3.425059945714001060e+03;1.676055390911325958e+03;3.359789826208426348e+03;2.308455969248501333e+03;3.041166397815060463e+03;3.380670225007594581e+03;1.376373553156926164e+03;-1.540978645460556038e+02;3.392452222605400493e+03;3.464124920801229109e+03;5.875227358578551957e+02;3.219969876865577135e+03;3.879159373272473488e+01;2.425655952690141021e+03;6.225874603747236051e+02;3.162254878511171228e+03;3.172378897212785432e+03;2.366022179308856721e+03;2.570892621532349949e+03;3.294707318261760065e+03;-1.161681399585857264e+02;6.042803687598561737e+02;-1.562208153332334462e+02;3.346547364498576371e+03;3.188147942401744331e+03;1.755866413710851504e+01;2.266753538430322351e+03;1.697023146249942101e+03;9.979126679923987240e+02;2.876398487171799843e+03;2.762531176339871763e+03;7.823496719617332928e+02;5.242850295059908206e+01;-1.996665217549500255e+02;7.147126753275916826e+02;6.761292810623856440e+02;3.414978627121831323e+03;3.012169458987133567e+03
-1.055547014907789283e+01;-1.538310832745734302e+01;-1.600882739219968443e+01;-5.134571922505725361e+00;-2.012554608894244268e+02;-1.453928743359928388e+00;-2.676196511817117241e+01;-1.650772081580160773e+02;7.199428432429280988e+00;-2.364750122108969776e+01;-1.294592571804171932e+01;-2.041929741323423642e+01;-2.145534890719687837e+01;-7.931591581224232357e+01;-4.973500203994519353e+01;-1.036635590546547370e+01;-7.096015975273047616e+01;-2.394501623802649988e+02;-4.586920485007210146e+01;-1.163341703910229512e+02;-2.500315070158793418e+01;-4.149992631985200120e+01;-3.654530015287514999e+01;-4.971164314651550598e+01;-3.207489378679189826e+02;-2.664311521077432943e+01;-2.314437771569838844e+02;-3.281288896787134490e+02;-5.743110142468877299e+00;-1.600229326971254125e+02;-1.916380635299094024e+02;1.799303977224760587e+01;-2.888017990372330956e+01;-1.121078956920328267e+02;-3.545491259259960515e+01;-1.224573045335498591e+02;-5.542256364116363798e+00;-2.149660094023895596e+01;-7.510402980356019498e+01;-8.163059637074641728e+01;1.394242136989535474e+01;-5.264345955764292029e+01;-1.881892826506847882e+02;-6.090595539492617405e+01;-3.669693349658438564e+01;-3.078213395248929896e+00;-1.182554397496069498e+02;-3.205146961241185011e+01;-1.258736748696095447e+02;-2.976778022807713597e+01;-5.697135152768822763e+01;2.490125852990023869e+00;-4.094984187620428884e+01;-3.764507887491940892e+02;-1.138540769995137794e+02;-3.953227396422346374e+01;-1.653041813890044693e+02;-3.168661942929314890e+01;-1.239867398571904999e+01;-1.051628325693590966e+02;-4.926733005506816454e+01;-1.976082949257575194e+01;-2.429623969714398868e+01;-4.828156575863467026e+01;-1.848764410001772518e+01;-1.998782458265272339e+02;-1.737099600941304800e+02;-3.673109300217638040e+00;-2.861612395421013133e+01;-3.091608459515237541e+02;-3.338572504360087692e+02;-4.399471960796851988e+01;-5.231399228421358316e+01;-1.798908165021317416e+02;-2.507246434869855278e+01;-2.079354149979437238e+02;-4.078831635353470375e+01;-1.187517171139458299e+02;-5.341677501637789049e+01;-2.645796794703086334e+02;-8.008831312055376017e+00;-1.674589863978996718e+01;-4.106236563528038452e-01;-6.937496289194780275e+01;-2.221520374755338025e+02;-6.471638306638428162e+01;-3.796877295221139548e+01;-3.111788394816162651e+01;-1.601908121386109372e+02;-8.137304249213384466e+00;-5.401484950167483134e+01;-4.343949452185328397e+01;-1.390113141714221854e+02;-6.227814327638402148e+00;-3.532222188819099529e+01;1.554170524571646395e+00;-5.483196049900040236e+01;-3.749370575695888164e+01;-3.027996357569560715e+01;-6.518488998003591917e+01
-1.735276859769653157e+01;-2.584555236583820914e+01;-1.518404730195032926e+01;2.751081750488580724e+00;-2.606964723284723817e+01;4.054221123802003390e+00;-1.255838359938763205e+01;-2.452560991987753880e+01;9.204787942404964340e+00;-2.593440822993986217e+01;-2.044105089033886458e+01;-5.231121097256735020e+00;-2.504308073403016976e+01;-1.598513580005400669e+01;-1.143644715200378492e+01;1.483018999699183382e+00;1.198438938657844233e+00;-2.876247498517495416e+01;-1.189670134541314184e+01;-2.336534558691381847e+01;-1.871518196314189453e+01;-3.634327842876389880e+00;-3.753270751158060747e+00;-8.399674002591837052e+00;-4.091732973780553806e+01;-1.247659789709602052e+01;-3.353741849716671197e+01;4.040185625619568732e+00;5.983020977713375821e+00;-2.743421322113091421e+01;-4.101903622863764554e+01;-2.001527907205182544e+01;-9.469937817687435810e+00;-6.114674487801019964e+00;-8.729135319283697569e+00;-1.669223896331809698e+01;-1.990810746269060161e+01;-1.959432486278649321e+01;-2.705846559521375383e+01;-4.177160218219158949e+00;2.413295956193766401e+01;-1.095321733269078202e+01;-2.915373627807622370e+01;-1.618648958980856634e+01;1.582950123846744717e+00;3.581661317440298475e+00;-2.708114963384555907e+01;-1.722411473328870812e+01;8.670707585850156995e-01;-1.417467450106687288e+01;-4.353832543345856010e+00;2.356721769082969153e+00;-6.370305694881199798e+00;-2.574740190187152500e+00;-1.061613251377559664e+01;-4.043222472892814778e+00;-1.406479251514912221e+01;-2.550564007477909456e+01;-2.535278312278060042e+01;-2.936520689122873762e+01;-1.182058249815754181e+01;-1.302495755367591812e+01;-2.069863673296174511e+01;-1.392961696537013339e+01;-2.702451192929576251e+01;-3.532939237996555448e+01;-2.671251287344576753e+01;-1.782320768858166815e+01;-1.308866454854182848e+00;3.305164204146546769e+00;-3.727990697401049403e+01;-2.265259516849768318e+01;-1.211405034748050724e+00;-3.061656282706747589e+01;-1.370875212225087125e+01;-2.536783306330445242e+01;-1.476884986568944136e+01;-2.531276165098996245e+01;-2.288758898643553152e+01;-3.229243402607853852e+01;-1.202018901181896382e+01;-2.638344385777971723e+01;6.370310648627861561e+00;-1.359086283214742608e+01;2.991734335939681966e+00;-2.495486679273120245e+01;-7.507097199269800569e+00;-1.911645292382875561e-01;-1.801243059522715839e+01;-5.885467881393502410e+00;-1.254292594432850372e+01;-6.406950283708745530e+00;-2.153897304602754303e+01;-2.651925689375501349e+01;-7.725675495818713046e+00;6.577516927307237360e+00;-3.843714688174413752e+00;-8.148276805144138990e+00;-2.851576906633981423e+01;-2.194112583525748050e+01
-1.497376284076337072e+01;8.948086294632942383e+01;1.514368457720752303e+01;5.946597371043318958e+01;-6.057134676040278976e+01;-3.942482211018406346e+00;1.017427029867116062e+02;-7.134762095606640742e+01;5.138373892536499454e+01;1.154445396382694042e+02;-8.114987871960211763e+00;7.886288314531473986e+01;-6.131810844166197150e+00;-2.503884463486280509e+01;-1.703710928986963680e+01;1.328251534859346066e+02;-2.070638918989155286e+01;-6.486507266909886482e+01;-4.178201843981631214e+01;-6.338529841065466286e+01;1.038996583828284201e+02;-9.217085738670679262e+00;-1.395223347896866883e+01;1.194437194785529499e+02;-1.496034951744143484e+02;1.646197326198535649e+00;-1.095030873608260151e+02;-2.307150395839872203e+02;1.304737465885579013e+02;-1.106635392179035335e+02;-8.557772996973771740e+01;-5.884039689034755582e+01;-2.146469941808744153e+01;1.075928148081382574e+01;-5.948378869068393016e+01;-7.181277741034296014e+01;1.160432090756470203e+01;1.251697142872614688e+00;-2.299090953693966810e+01;-1.556113954018941570e+01;1.593432286967099856e+02;-5.097904249883956140e+01;-6.106444186545478914e+01;-4.479709055909418680e+01;-4.416307378359783797e+01;1.041147519523478451e+02;-7.122345002800435054e+01;1.226803746509382336e+02;4.264583874414448417e+00;-4.007434147722149476e+01;-4.060691251239294530e+01;-6.565543852088303822e+00;-3.445443043034865838e+01;-8.442981942156400521e+01;-9.261066964039393667e+01;6.827185787186803623e+01;-6.368370733609462775e+01;1.153067363958282243e+02;2.372509600783025974e+01;-5.809406365127798288e-01;2.651412422174772843e+01;-5.329792421106628808e+01;2.564739678614687435e+01;-2.419431199064119298e+01;7.215685367021590935e+01;-6.592636812773426414e+01;-8.851817562293452113e+01;-1.551265047621834903e+01;-1.813698217237748622e+01;-1.504208630626293655e+02;-1.584232896648233861e+02;2.298189230402086878e+02;-3.966399254419955156e+01;-1.360825395530752928e+02;-4.031672997459139651e+00;-1.022327352218253793e+02;7.534766926206722282e+00;-4.787908113628236606e+01;-4.405833748071527367e+01;-1.156015950281885267e+02;2.381757802567016213e+01;6.689041856686672283e+00;8.528621632486246540e+01;-6.816419509527470666e+00;-1.888345120394887431e+02;-2.764563450787718324e+01;1.050809494563745261e+02;-2.655035438542063986e+01;-6.180937572399671609e+01;6.938683483305742028e-01;-5.645426103077721969e-03;3.387469105268896108e+00;-3.771002989940716077e+01;-2.017212840161494114e+01;-4.919456722052827047e+01;9.568342773364831544e+01;-1.585173626376854017e+01;-5.900383509122693226e+01;1.062539625751171997e+02;-6.078819728204669559e+01
6.468747200026646382e+00;1.875288052598399702e+01;4.515305868124590560e+00;5.348794513827684227e+01;2.062768188409815195e+01;2.075520032518688041e+01;2.131946709957405872e+01;2.296870267926062326e+01;6.303270021977126447e+01;3.656149384317286888e+01;-1.031957296019962556e+00;-2.673524008926309392e+01;5.260538975397183492e+01;-5.899096264993588079e+01;-5.397502681571653227e+01;7.892744277673824627e+01;-3.131973477721701205e+00;2.583627266417337864e+01;9.384697119318516911e+00;-3.895191726813803257e+01;1.424270788800808241e+01;-3.761956909533036253e+01;-3.410393097382826255e+01;3.782936370662460490e+01;6.745441440080156781e+00;-7.466439441243383612e+01;1.112903186899588093e+01;-5.811745696680931417e+01;5.439160354042621037e+01;-2.218791266540351614e+01;-2.635693126637465866e+01;2.108233767710793671e+01;-3.034717675428193928e+01;-5.390760199228432725e+01;-3.863415012695847395e+01;1.071702380845454883e+01;2.092480473727478252e+00;-5.318340712242572721e+01;1.695335049093355906e+01;-2.971529727126879550e+01;1.218637945851366879e+02;-5.269378419642109179e+01;5.411571925684455664e+00;-7.693669711646427345e+01;-5.486920078116481392e+01;3.250429968608294473e+01;-3.815896191074351407e+01;4.826607166814960692e+01;-1.129308122466984798e+01;-5.556089973913054791e+01;-2.892471309670333568e+01;2.411128293248991739e+01;-3.508366692176149115e+01;1.406280789802352160e+01;-1.001736603962658734e+01;3.819686136736045512e+00;7.398900309179310852e+00;4.373885581735905248e+01;9.033597725620150953e+00;3.181038497857360170e+01;-2.079543073152844812e+01;-4.208346797464805888e+01;1.564982402301562914e+01;-1.886478818676573610e+01;4.399695882353799448e+01;9.134417396136939260e+00;2.918455450341157587e+01;3.122951488294950906e+01;5.203000326205753368e-01;-3.111317266623657929e+00;2.811293976935729688e+00;1.112717439793361507e+02;-2.188953990520310811e+01;-4.028712515993234433e+00;-1.000787356564888313e+02;-2.216888323420548090e+00;-3.883987313465415525e+01;3.789791921516933826e+01;-1.146675887213220335e+01;-3.217512999805974516e+01;-1.748109455470478579e+01;1.051635667279061437e+01;5.569922153097425621e+01;-2.775653210286709083e+01;-6.279903252999073970e+01;2.673272279340791258e+01;3.429307571011165123e+00;-4.915375657842707824e+01;3.509287326239963534e+00;-1.291911823396611503e+01;-5.721019066175230705e+01;-3.315561697317881418e+00;2.192319049636686401e+01;-9.923277669675422885e+01;-6.314259482325393691e+01;5.671958592050708603e+01;-5.545805697919935540e+01;-2.773854532448238075e+01;4.802983939595510776e+01;5.524440847493536921e+00
-8.864770343994980095e+00;-1.473006922991840284e+01;2.657657373170134729e-01;9.301720223637593676e+01;-2.101910047562444106e+01;7.870659175833185373e+01;-5.642415653880277659e+00;-2.031094562258626723e+01;4.120991713695464398e+01;-6.110388070955369955e+00;9.556299733445978717e+00;1.569744283332684986e+01;-1.023635398533127017e+00;4.140166187892814875e+00;6.296972614533585144e+00;4.055933962628131439e+01;1.011652302376603885e+01;-3.205582686014840021e+01;3.386051756902492826e-01;-2.222133364821528900e+01;-4.822743182800052431e+00;6.899224133356474553e+00;1.873368875739861750e+01;2.935357666851751901e+01;-6.741781146774025046e+01;3.820111628765697986e+00;-3.216827657510000904e+01;3.817309335713332530e+01;4.532810257370132234e+01;-3.003069956489500569e+01;-3.435860044480980946e+01;1.734836692179211770e+00;2.497216538113743667e+00;1.736249907238438084e+01;2.028902427711223311e+00;-1.422989966847998211e+01;-2.536863488908513542e+00;1.212987981931314296e+00;-2.767306962196483155e+01;9.842899275752791111e-01;8.914407791397734115e+01;1.366117871248617988e+01;-2.285918202079350792e+01;3.607477693375455541e+00;1.409886686054412230e+01;3.749240710297153356e+01;-1.889541604863836000e+01;-2.948068451310399407e-01;1.590449348832525089e+00;2.445287307349882866e+00;1.663941958238426944e+00;8.456974864386037893e+01;4.356288489665276487e+00;1.106627663851239021e+02;-2.697913059601854613e+01;1.589786624393515346e+01;-1.577348885728784467e+01;-1.458776000524898464e+01;-1.430083693061478733e+01;-2.498760055720281414e+01;4.593750811544177637e+00;6.545415639206229486e+00;1.516098851792342606e+00;1.826616301190950864e+00;-2.679078091830405572e+00;-2.639739160153104081e+01;-3.439276001179005249e+01;1.340301218880574297e+01;2.745276608331881363e+00;9.577295323286375606e+01;-6.822740364943371105e+01;5.244565002266769227e+01;9.104361723102586623e+00;-5.825665937677426598e+01;5.138777426362776346e+00;-3.091770044574178655e+01;5.477423769042122359e-01;-2.208610017162386896e+01;-3.652067953306045212e+01;-4.408397792124282688e+01;1.624040649841855810e+01;-1.525077049697696374e+01;4.533292574509639650e+01;-4.543100772981171431e+00;5.227156309807290313e+01;-2.044077060935076418e+01;2.565825365880616715e+01;8.669571014636435535e+00;-1.257778191435375348e+01;-1.468485497077153035e+00;7.021356211473397835e+00;5.542327694537740435e+00;-1.998127592937871455e+01;-1.055794010993653842e+01;1.099635351320169008e+01;5.328463267235167677e+01;1.770060803558428475e+01;2.633697221902870034e+00;-1.784155216786382070e+01;-2.099602797815099109e+01
-6.336172513716187638e+01;-5.232891627025185244e+01;-1.123904231747101079e+01;-5.029147682160361654e+01;5.673224969984572041e+00;-4.334858640253609963e+01;4.190729923609013241e+01;1.670763384178794908e+01;8.998780748192797319e+01;-1.434173456451907569e+01;-4.363663668886736957e+01;-2.550685579570945549e+01;-2.973045768066090133e+01;-5.756186809079523670e+01;-4.557807535054533332e+01;6.645513516444667346e+01;1.860981372080894758e+01;2.921571759125182055e+01;-5.483518399054814552e+01;-3.630320454776497030e+01;-3.742670871780274666e+01;-3.268281666978437272e+01;-2.702708898401520798e+01;7.551525303550502599e+01;6.642132376367737834e+01;-8.567339631620377816e+01;1.297133674082045118e+01;8.164276887520031778e+01;9.537147402454432665e+01;-2.101954656289468915e+01;-4.522194426822268554e+01;-2.741639569292356526e+01;-4.679614480082840799e+01;-4.195090634929363915e+01;-6.323101283800937011e+01;1.020198651677462376e+00;-7.636090984885177591e+01;-7.563829868439843551e+01;-1.704848936550625993e+01;-7.438575639973183051e+00;1.353270813343368673e+02;-5.277102460136620721e+01;-5.004629037214944454e+00;-8.053961568253745895e+01;-9.465225589480834145e+00;9.614434647486378083e+01;-4.286806736060296430e+01;7.596288681025873757e+01;1.842571731375810273e+01;-6.996199974762335216e+01;-2.982480114778000058e+01;-7.486314268191098620e+01;-2.752352034179328655e+01;-1.813374950929136276e+01;2.756646696876213554e+00;3.169023204093474888e+01;8.361366788186765930e+00;-1.447580399056730371e+01;-5.676031123131320300e+01;-6.246323293250332753e+00;3.215187241517519823e+01;-5.447854755028936324e+01;1.500611812159208247e+00;-4.283277509096815550e+01;-3.844566285331590905e+01;-7.010183338309686540e+00;6.419926963184025226e+00;-1.032693189153292890e+00;-3.119759642105860209e+01;2.748260901833218028e+01;5.980364699984042431e+01;5.578030762778674756e+01;-8.686030203513322334e+00;1.349695233273659056e+01;-9.499821623682794325e+01;1.865256957371458357e+00;-5.063531705000908545e+01;-4.626125375703906251e+00;-2.259885639326327933e+01;4.368623579624030029e+00;-1.760483155691033375e+01;-3.441993811597821207e+01;7.732284646628116320e+01;-2.788012148000767354e+01;2.959286759904474096e+01;-2.233602421733863608e+01;5.095497222235554347e+01;-1.924951733377868734e+01;7.495287453221166629e+00;-4.104840662263825379e+01;-7.774241455924590127e+01;5.125550344825303029e+01;-2.618104268107618093e+00;-1.313330304059180946e+02;-5.358662160135934727e+01;1.004896103094238811e+02;-6.164779238001179351e+01;-4.243951266994048410e+01;-2.077714015869135977e+01;-1.556419379593067909e+01
2.679424657597318401e+03;3.031758793381590294e+03;2.810591552318028334e+03;-1.537216078865401414e+02;2.351461246331911298e+03;9.909655739771576322e+00;2.839712940855696615e+03;2.296957747622608167e+03;-1.694916145940249237e+02;3.132613151051732075e+03;2.715469850060189856e+03;2.836137840319607335e+02;3.144130446629604648e+03;4.952744669255770873e+02;3.744763326306886029e+02;3.083722703854818064e+03;1.389108056461125898e+03;2.815996945685337323e+03;1.742453990208480491e+03;1.643907107336088529e+03;2.557136856235574669e+03;6.414961149452167319e+02;8.940397395528783591e+02;3.129680416539832549e+03;3.072008582053918872e+03;2.190865181389268912e+02;2.436797548595306125e+03;-9.687503545451001230e+01;-2.214607765513522253e+01;1.979360235190115873e+03;1.971657773093943206e+03;3.122588331837928308e+03;6.024138414962870911e+02;1.676195214437287291e+02;6.559938737612625346e+02;2.167479230715284302e+03;2.617056176817274263e+03;1.080714463616251578e+03;2.945990937699328242e+03;2.373871541082524175e+02;-1.906283053808188583e+02;1.469329529577225024e+01;2.168205837443518249e+03;6.517375871698621950e+02;6.259189413616073807e+02;-2.138395224081831998e+02;1.652030503959127600e+03;3.192804136086958806e+03;5.564480354816421226e+01;9.075730416899954207e+02;1.127928762852937552e+03;1.035719186460521257e+01;9.157322820940805741e+02;-2.251371051844741373e+02;2.349795112178063391e+03;2.701767826065824920e+03;2.249399346158815661e+03;3.055909298155444048e+03;3.068329349067688781e+03;3.165718136417841379e+03;2.821103902091585951e+03;8.367086201427905223e+01;3.176256872381555695e+03;1.550912049317884794e+03;3.115537914999276381e+03;2.143049761051211590e+03;2.821312621832426430e+03;3.135178089869532414e+03;1.276531309667186179e+03;-1.424173526443217384e+02;3.147828478743356300e+03;3.209977632969677416e+03;5.458584012185116308e+02;2.986347334169775422e+03;3.843206376671204794e+01;2.250744078883704788e+03;5.762651875378563773e+02;2.931173730975532635e+03;2.941514828862596005e+03;2.195060251940268699e+03;2.381086661880222891e+03;3.053794693319945054e+03;-1.077211271716068239e+02;5.595243830330837227e+02;-1.443499761387133731e+02;3.101757401651424061e+03;2.952577733818696743e+03;1.725875743482400893e+01;2.104225761525129201e+03;1.573979764418777677e+03;9.250518399789431214e+02;2.665147098246100086e+03;2.560920257139918704e+03;7.251542762759770540e+02;4.914419763401230057e+01;-1.865123724922698329e+02;6.645250107582536430e+02;6.277807542605273738e+02;3.165820802739827741e+03;2.791460164764032470e+03
-6.085152611285519697e+01;-4.347342253337393103e+00;3.420037359158996537e+01;-1.736291076058341787e+01;-5.916172369661543229e+01;-3.237127022841752577e+00;6.153300005277763063e+01;-2.984978240863052079e+01;1.054781203037146753e+02;3.131659236065749852e+01;7.603328491953543988e+00;-2.233855079862285464e+01;1.811552806599349807e+01;-1.066714658042437094e+02;-8.244177695888980395e+01;7.874265410570521340e+01;2.762997079149325685e+00;-6.886099242356007899e+00;-9.532301143311119063e+01;-6.433496547501661667e+01;-1.677480943806745017e+01;-4.903979470074256852e+01;-6.497401080082254055e+01;1.091437872479706783e+02;3.698613807561444133e+01;-1.939960484278434194e+01;-5.232223665394869272e+01;3.499219407267931814e+01;1.311643892241144442e+02;-6.659220419053389151e+01;-1.174665668196977890e+02;3.691486444286866941e+01;-5.534769082248913463e+01;-8.858146370845358319e+01;-6.116589710877799035e+01;-3.487253516900661054e+01;-5.952105218470492076e+01;-9.397282581123167233e+01;5.784624660429256160e-01;-5.874082751529871160e+01;9.808428147997875612e+01;-8.614910550669355871e+01;-5.416106205929606432e+01;-9.724913851149139532e+01;-9.912915325229894492e+00;9.846135743026883347e+01;-7.026650182835095393e+01;1.012049354918379862e+02;-1.168596669946302313e+01;-7.583365257485337452e+01;-4.985578331524364160e+01;-3.294572562762503765e+01;-1.921315797252472990e+01;-1.117154834239111239e+02;-7.496248708541958905e+00;4.505211462424450986e+01;-2.206930192330213103e+01;4.050310033021455425e+00;-1.498162645081542799e+01;-1.519149152555140958e+01;2.329401151126513128e+02;-9.767671325013559169e+01;5.402056843721004498e+01;-6.259924540771901746e+01;-2.563953814647417317e+01;-7.449711953161715883e+01;-3.040805596362670116e+01;1.170798111976692013e+02;-4.013094751645525093e+01;-1.897684127843658786e+01;2.050710709254511244e+01;2.628802312792509710e+01;-2.467912142965478850e+01;1.856433231472048817e+01;-1.247476576594596338e+02;-4.716162943129445750e+01;-7.259337244694823710e+01;-4.029667759375325176e+00;2.361947605278788842e+01;-4.894611141551312983e+01;1.136654578078591982e+01;-2.266336904036552191e+00;8.401958643421994566e+01;-6.214648354247909623e+01;1.459402869500928723e+01;3.767845121359039950e+01;6.915222070825649325e+01;-2.084374561701211093e+01;-2.461392449463741627e+01;-1.258873769900438155e+01;-1.054912572203150631e+02;2.153043615885195834e+02;-1.526005918316044685e+01;-5.082133853147202984e+01;-8.999526634488663035e+01;1.172646813857746508e+02;-9.991866565209727469e+01;-4.538899539598897803e+01;1.464191675554087446e+01;1.887243650944444440e+01
-1.876211595075599092e+01;-1.083530474058905746e+01;3.913820799209165102e+01;3.684804521807743072e+01;-1.165474246094972983e+02;-1.373459929812195135e+01;3.253875296386310367e+01;-1.079991778382456857e+02;4.492127177436931618e+01;4.792900427365181848e+00;-1.247641780098323494e+01;2.707581629675233970e+01;-1.534771033197659129e+01;-7.196833422844834161e+01;-5.978451575844832888e+01;3.182480247982223176e+01;-5.384574479116069767e+01;-1.308113759453071907e+02;-6.224241817452256953e+01;-8.025899468419925142e+01;1.628020253363946068e+01;-4.705209111040898762e+01;-4.028305603486979436e+01;4.029452105817350827e+01;-2.114545960079452414e+02;-1.571282020768151533e+01;-1.442686736206784701e+02;-2.601379714891887716e+02;7.068364119697217518e+01;-1.224283727199126162e+02;-1.344583584226306243e+02;-1.205631793359970239e+01;-4.020554059123151092e+01;-2.311915916602083598e+01;-5.309830091242118755e+01;-8.724663052856880086e+01;1.488163975294135355e+01;9.850932759484031465e+00;-6.581668034479109508e+01;-7.400256919976945369e+01;6.763277035539921656e+01;-7.655083084369192648e+01;-1.092735954070925715e+02;-7.652911261196697978e+01;-2.970954731478084909e+01;7.039940522654076460e+01;-8.312950027585796420e+01;3.565377543641704250e+01;-9.175152897925674722e+01;-4.609916229307767566e+01;-4.302601029266928379e+01;-7.757182522273751601e+00;-2.681744585987715013e+01;-2.289731242754020855e+02;-7.993245073425674718e+01;6.284820967712254713e+01;-9.179129459891024112e+01;1.908130813654495128e+01;-1.082812244606229157e+01;-9.045389662991178170e+01;1.570203614708967876e+01;-6.286266553148733749e+01;9.077057804776735850e+00;-3.540901117452472846e+01;3.089152306542962911e+00;-1.294408289255690079e+02;-1.129269673922411528e+02;-9.263427631951666186e+00;-2.454022031480840838e+01;-2.151705499479924981e+02;-2.021442815675890188e+02;6.911369222157146908e+01;-3.755299659097995857e+01;-1.347278209689649202e+02;-1.618947880792030247e+01;-1.332633375943044882e+02;1.093403253230279759e+01;-7.468387334506567754e+01;-5.102782888510665060e+01;-1.616441735988488517e+02;1.251355497371517878e+01;-1.473740093399391604e+01;6.716968153683043852e+01;-8.267589409312259363e+01;-1.559905408793977131e+02;-6.016181271754234672e+01;8.352291072804129968e+00;-2.368664627512404053e+01;-8.989726869135516552e+01;-7.109902495539296652e+00;-2.259093109602764571e+01;-7.786353506062970720e-01;-7.866871372067554091e+01;-7.303542811513773714e+00;-6.097277550491338616e+01;7.975227099641638517e+01;-4.168514564190678584e+01;-5.729868538991240001e+01;4.744475012192496344e+00;-7.344280696221474614e+01
2.571779919973172923e+01;-5.493699974575582345e+00;3.159584839910420939e+00;-4.984632591879567087e+00;-2.215986113308162828e+02;-2.776305872447978884e-02;-1.499430066562879738e+01;-1.799263429456044321e+02;-2.810614209708919731e+01;-3.439226375825378312e+01;-3.788127532760311444e-01;-1.953768769244895509e+01;4.454451630042318477e+00;-9.307365095362784757e+01;-6.110241055057971238e+01;-3.637032945844345022e+01;-8.201253831970092278e+01;-2.547263063693564220e+02;-5.933225469020131726e+01;-1.231557505774939330e+02;-8.076067900263243615e+00;-3.882337533212211866e+01;-4.869225520407544394e+01;-1.774210770637567691e+01;-3.577196248736465236e+02;-1.337716501310615147e+00;-2.533566527725614606e+02;-3.722279231139266358e+02;-3.783628889663290806e+01;-1.710330848333045424e+02;-2.151807935979518902e+02;5.961305669372904248e+01;-3.201616034510171005e+01;-9.778790324431722070e+01;-2.832610041439667725e+01;-1.303632320878426754e+02;1.840890322933046264e+01;-1.923469515167268185e+01;-5.387939535229546095e+01;-1.013670136903037218e+02;-8.010221101012938050e+01;-6.867471345169292363e+01;-2.064082127587534501e+02;-5.574066473407601308e+01;-4.666914518841259252e+01;-2.348990275128644356e+01;-1.262550247586067798e+02;-3.641956757096293273e+01;-1.369671347496166334e+02;-2.749733886239448921e+01;-5.573977207487644137e+01;1.850242839698454933e+00;-3.240675248695280430e+01;-4.328198974259727265e+02;-1.121023824724006772e+02;-1.201139248145756611e+01;-1.795028924128521055e+02;-7.225617601996673578e+00;3.209368990421406220e+00;-1.182854016128278545e+02;-3.575002823750023850e+01;-3.488397322488147267e+01;-1.284509717627003944e+01;-4.740248803845703662e+01;5.684136315278785823e+00;-2.262588566845806213e+02;-1.844410906083252542e+02;1.526859139553350353e+01;-3.488558799040430358e+01;-3.737279045745456756e+02;-3.642931860970339244e+02;-4.291053664676505264e+01;-5.934274438701082488e+01;-1.790422113467910492e+02;-3.059245277342259683e+01;-2.287661960641287351e+02;-4.088397221704961026e+01;-1.100603120696814301e+02;-3.443676109319202538e+01;-2.890180975634153810e+02;-1.347076093106344352e+01;1.965905704193531278e+00;-3.861267230391445082e+01;-7.994536986346938079e+01;-2.605885776050478171e+02;-5.307354044099800916e+01;-1.493822619836269006e+01;-2.085419317546988083e+01;-1.723198469773790578e+02;4.606557964274436756e+00;-4.614649521069212312e+01;-1.133945508493089172e+01;-1.420174477153601345e+02;1.227074960513323454e+01;-4.986858069635488278e+01;-3.576789994395451799e+01;-6.691932119214527575e+01;-3.689167711312123998e+01;-1.129422894283769274e+01;-5.967246463479326479e+01
2.926415705568425892e+03;3.313366328420718673e+03;3.068547293456234456e+03;-1.678580907699169131e+02;2.576319842717729443e+03;8.783715154978219530e+00;3.097316774573019302e+03;2.514000598826424721e+03;-1.889339163394942318e+02;3.424723145199115152e+03;2.967087412636256886e+03;3.102200714913595334e+02;3.437514958518770982e+03;5.484446717550758876e+02;4.148762473272217335e+02;3.358730455374165103e+03;1.510699070403287806e+03;3.079750787975880030e+03;1.904693086125417494e+03;1.801518227479755296e+03;2.794568056631035233e+03;7.036208096826611609e+02;9.760723756275585856e+02;3.412021106962652084e+03;3.366181961588018112e+03;2.462287619166429238e+02;2.667892203368810442e+03;-1.083697432425659599e+02;-2.765911963320526112e+01;2.168207050442702439e+03;2.167298280835475452e+03;3.410107652321938531e+03;6.592157822367718154e+02;1.850393022099294171e+02;7.212707045459835626e+02;2.365562414039043233e+03;2.858714235885019662e+03;1.186984435906797444e+03;3.221239893847331587e+03;2.630325311951411891e+02;-2.189138198993805986e+02;2.294352255487345005e+01;2.372339375209026912e+03;7.196192041342071661e+02;6.782143088210328870e+02;-2.336300092166868865e+02;1.806939892531213900e+03;3.484999602283809509e+03;6.089787331804020454e+01;9.924480645730352535e+02;1.231276982066200389e+03;1.096614073294528957e+01;1.000344547709603603e+03;-2.450939981628304167e+02;2.565499723332961821e+03;2.943296475937100695e+03;2.454731269554338269e+03;3.339882426563022364e+03;3.353302823151034318e+03;3.461859639339412752e+03;3.078231895258118129e+03;9.730394424719749225e+01;3.468360034463352349e+03;1.698127025246643143e+03;3.406163845940475312e+03;2.349604869284242795e+03;3.082917027857904941e+03;3.422679225360884175e+03;1.393311368215068114e+03;-1.564240160492481664e+02;3.445929374560615543e+03;3.507243559149426346e+03;5.936167416303743494e+02;3.267433384833039781e+03;4.683480580017828743e+01;2.465130609002560504e+03;6.366258010511802468e+02;3.204015995758543340e+03;3.213416288008068477e+03;2.407228269895165795e+03;2.599449820528426244e+03;3.338632054334716486e+03;-1.200886036947510433e+02;6.166630109834620725e+02;-1.599214469502709619e+02;3.390753565705745132e+03;3.218846596285746273e+03;1.805900808306027372e+01;2.296154269439190102e+03;1.716650170268359943e+03;1.016961834686648103e+03;2.905376699329986877e+03;2.800281655898252211e+03;8.027674462782127875e+02;5.852110833111063215e+01;-2.051370574850882633e+02;7.247159434290052786e+02;6.863731700032441267e+02;3.462166326779778046e+03;3.050224947944502674e+03
-2.899526960749899374e+01;1.714392293335330564e+01;-2.883003847649759255e+00;1.152144023022228758e+01;-1.688519814409930859e+02;-5.141758262691383585e+00;8.744752338757411536e+00;-1.410464469233095315e+02;1.717223537682875545e+01;3.362979569829569471e+01;1.281498925155348245e-01;7.284125824563206208e+01;-1.218278125478973095e+01;-3.180310556496423757e+01;-4.624812773843041924e+01;3.750090007966365135e+01;-7.466549574429214431e+01;-1.864762424848146907e+02;-6.626612056761668157e+01;-1.079196524351928161e+02;2.408435479134137580e+01;-2.458032230350141489e+01;-2.896152161398102010e+01;3.056207648704958757e+01;-3.040808694759855371e+02;5.093068347380438610e+01;-2.079492956989019490e+02;-3.568165287378078574e+02;3.319305318146126638e+01;-1.593231550083451111e+02;-1.772866115833705862e+02;1.090274335312999909e+01;-1.595912378385512120e+01;-1.812684120529208087e+01;-3.758080058909828836e+01;-1.128517862576142790e+02;2.693163858476566919e+00;-1.126679625037578525e+01;-4.871336689573809053e+01;-8.578714106543317541e+01;3.523241143866535907e+01;-3.721195132344622891e+01;-1.554217912440628879e+02;-4.614452771349066040e+01;-5.243813370816524611e+01;2.966776721136517025e+01;-1.140572015819624312e+02;6.777004483839805360e+00;-7.037315248613914775e+01;-3.589146094249186802e+01;-4.376193975273798742e+01;-5.907200441820980252e+00;-3.388157170625927961e+01;-3.790518281318247773e+02;-1.075836718685720683e+02;2.020902617256670197e+01;-1.372938395770320597e+02;3.595316903292201260e+01;2.950205983101368279e+00;-7.593699661981089832e+01;-6.285113056903361972e-01;-2.701338137027326880e+01;-1.630627223884300747e+01;-3.938094873564026699e+01;4.369895847857001137e+00;-1.720565318225237093e+02;-1.469922082956739189e+02;-1.739941016386822970e+00;-5.293756821387286493e+01;-3.746065991216576663e+02;-2.994534580481047215e+02;7.737809972347190524e+01;-5.038973134347742189e+01;-1.809298715339346586e+02;-2.293977854317550324e+01;-1.879889210253193710e+02;-4.656526226721145356e+00;-8.104261948855757680e+01;-5.233298374603133851e+01;-2.386019124613300733e+02;1.818333113306845439e+00;-2.362759596770406034e+00;4.629355001762255029e+01;-6.839866952085402829e+01;-3.131073501426845951e+02;-3.460401283135314543e+01;1.114081554056228329e+00;-7.223044732788437727e+00;-1.345703404554193128e+02;-9.545002013578329780e+00;-4.329504096376876277e+01;-7.433399804359663854e+00;-9.470524090953071550e+01;3.540471865361860893e+01;-4.010534309577716527e+01;2.886049003285145531e+01;-2.424421510152254911e+01;-4.992151627997712637e+01;2.922962269321449824e+01;-6.517731936688704764e+01
-3.821677274180611050e+01;2.502153737095924146e+00;-2.127484390351122467e+00;-2.203864096451829013e+00;-1.366889841360491289e+02;6.234551759215182898e+00;2.994901350028339593e+01;-1.038648214696222141e+02;7.219824699191549655e+01;2.666057792806726923e+01;-1.756056911892956407e+01;3.069796062090864641e+00;-8.878237372982718867e+00;-6.401545078770652708e+01;-3.374240902592912050e+01;1.026595543838765536e+02;-3.834474616365264410e+01;-1.635464757464936838e+02;-2.452465888973951991e+01;-1.004747077146058984e+02;2.325448942299903621e-01;-3.018210134130571021e+01;-2.408538719776276338e+01;3.213010438888250775e+01;-2.051348984494410672e+02;-2.227613747392729593e+01;-1.539953412057860476e+02;-2.060378807519898885e+02;9.277339168905230338e+01;-1.240902944670407635e+02;-1.441379232698548662e+02;8.124629951652808657e+00;-3.544174188881485321e+01;-8.784468911625418741e+01;-4.808135874943165078e+01;-8.379535780527896804e+01;-2.544256082515519779e+01;-5.442158577342595294e+01;-3.973155443233261508e+01;-5.351733598511912504e+01;1.335223843541506881e+02;-4.457303198043015868e+01;-1.307374589378393637e+02;-8.061044798735467509e+01;-4.458107585918001092e+01;7.412312403032174757e+01;-1.061295435459085468e+02;6.090628966980273873e+01;-7.797603168182634192e+01;-3.655289008699427455e+01;-4.627108973746595666e+01;1.334163526936641198e+00;-4.833303647515537449e+01;-2.519480688623176547e+02;-9.354485099179319718e+01;4.337599248925832285e+01;-1.242580337960494177e+02;2.286192833651044420e+00;-6.391889039963744024e-01;-7.205786775421631773e+01;-2.828392097373765424e+01;-1.924446036233069890e+01;-6.975824703618755507e+00;-4.790706340432731736e+01;-2.474349649355052083e+00;-1.391540448261448546e+02;-1.114691963966756134e+02;-9.628046275781903418e+00;-3.169485409520694930e+01;-1.974612686448212457e+02;-2.274425169458058349e+02;4.257525632582952824e+01;-4.663665835765401368e+01;-1.306487420075749526e+02;-5.818626049920250409e+01;-1.500696654222011261e+02;-3.433322034242252840e+01;-7.658594501035094027e+01;-3.833853675248096948e+01;-1.970729737793549248e+02;-1.318470730111842792e+00;-1.983955719833340625e+00;7.289078691390980680e+01;-4.886941677017802022e+01;-1.527611652497898262e+02;-2.303588418432804730e+01;3.708696951554568955e+01;-1.875520323512628096e+01;-1.189603450486605851e+02;-2.618275227108984282e+01;-7.260286990426558873e+01;-3.087826169378909213e+01;-1.033857248715510480e+02;-5.945242116896407225e+01;-3.580930389420389304e+01;8.281110479073618080e+01;-6.014256610557401928e+01;-3.006887631526717186e+01;7.953522033915240819e+00;-3.462348295126754039e+01
2.646780082359361586e+03;2.996246063877774304e+03;2.776109496977402614e+03;-1.513019701660149963e+02;2.326552940114671401e+03;9.266597310822550781e+00;2.804771044534876182e+03;2.271346939355428276e+03;-1.666828111152630356e+02;3.097576425196627497e+03;2.682266163527783647e+03;2.804147332452695309e+02;3.108103732794482767e+03;4.913405457569830332e+02;3.702197208050856148e+02;3.046451874971488905e+03;1.372213931424650127e+03;2.784088680483329881e+03;1.723094444608527738e+03;1.626811128638701121e+03;2.527094534662025126e+03;6.325885747519132565e+02;8.850346234162501560e+02;3.092853361024514925e+03;3.036823072324659734e+03;2.171089738186630029e+02;2.409022592382740640e+03;-9.747154556511968337e+01;-2.365070062010564556e+01;1.957008428418212134e+03;1.948688554859130136e+03;3.084990166356578356e+03;5.957864713270085986e+02;1.673551506359935956e+02;6.470836746360905636e+02;2.141598892929268914e+03;2.585316466050782310e+03;1.067103369143000691e+03;2.910781951947266407e+03;2.354546678284272900e+02;-1.902811117765208451e+02;1.543257830312061785e+01;2.144689398989492474e+03;6.441752949194110442e+02;6.176366468765918398e+02;-2.120237977896277073e+02;1.630972179787078630e+03;3.155542808777245227e+03;5.476448804366797418e+01;8.952516318163412734e+02;1.115840549436125229e+03;1.086157685306860188e+01;9.071344464344983862e+02;-2.218567954816324459e+02;2.321921385402515625e+03;2.671300798916920940e+03;2.221129506729487730e+03;3.019216159856953254e+03;3.031557727347561013e+03;3.130455244324768046e+03;2.788643367813829627e+03;8.387873329118527010e+01;3.137040303963731276e+03;1.533690444039213389e+03;3.078582111390845967e+03;2.117230462990925389e+03;2.786515579757176511e+03;3.098394678421621848e+03;1.261652583156143237e+03;-1.404989082597553818e+02;3.111652427057657860e+03;3.173656832597391258e+03;5.386302045521580339e+02;2.951472842667337773e+03;3.817256682438030424e+01;2.224485324998242504e+03;5.710791308713434091e+02;2.897374492702655516e+03;2.906992412337079713e+03;2.170650349184107654e+03;2.352859951400125283e+03;3.018747800674257633e+03;-1.060194603242016882e+02;5.541869274587155587e+02;-1.435797132808650360e+02;3.065393762634163068e+03;2.917296477089469136e+03;1.762338921726379937e+01;2.078595566958242216e+03;1.555452423398071232e+03;9.131893062214712700e+02;2.632435605802360442e+03;2.532427070811068916e+03;7.187136150652452216e+02;5.013205756713582417e+01;-1.842731955790413281e+02;6.567529095864176725e+02;6.197594725504397957e+02;3.128794395870209428e+03;2.760113368787142917e+03
1.243391261090518896e+01;3.194928240128590247e+01;1.910457886706812403e+01;7.686373484294693981e+01;5.825000391864136873e+01;4.386570249451899883e+01;2.595710237733627679e+01;5.360690299341557363e+01;4.554951102417609121e+01;6.249090659406887482e+01;2.219792462703868097e+01;-2.234960223375310306e+00;3.596001689446590888e+01;-2.981806065780187964e+01;-1.989231822368049052e+01;9.589452513398892108e+01;3.640686248070441877e+01;7.170226389267286038e+01;9.808010164763750538e+00;-7.055531971274760394e+00;1.405093236606298035e+01;6.742396991555041907e+00;-1.206871705564587671e+01;6.711259561289097064e+01;6.547503176376832812e+01;-4.293435460172712936e+01;5.268757315961345000e+01;3.773299354163341945e-01;5.096222600521687696e+01;1.576044760711898363e+01;7.474785749125693712e+00;5.376481913505314481e+01;9.512448326999463077e+00;-4.106453889977795058e+01;-7.281744410026243841e+00;3.894113699313184185e+01;4.631470938208144261e+00;-3.469587638904934579e+01;4.264805191451246458e+01;-1.163561495956627923e+01;8.891982318065059587e+01;-1.658511980711851308e+01;3.416826172834404929e+01;-5.299545010063952333e+01;-1.038798203994828029e+01;4.416935373209633298e+01;-4.647686344794461633e+00;8.690053729636497337e+01;7.847508046083600419e+00;-1.796669782599178333e+01;1.966183975110385518e+01;6.005889167803846362e+01;5.899195718461652582e+00;7.044816213414617323e+01;3.041517827074683566e+01;1.773867828725177986e+01;3.967043129321969985e+01;4.164929230485908818e+01;3.023946331148533417e+01;4.230143748732518816e+01;-1.010315401382877987e+01;-8.548896045172266867e+00;1.627846658305687200e+01;2.929220526568749872e-01;4.711038898130880881e+01;3.183984430665158527e+01;6.378361905696417011e+01;3.687324729586844541e+01;8.663832078325244268e-01;5.559716865489202320e+01;6.741348008966576799e+01;1.083854175067123577e+02;-3.087040760176650522e+00;4.487317327972986902e+01;-6.043881243752471022e+01;4.016009982072183959e+01;-3.330760325114306752e+00;6.584543910396624256e+01;2.805919783185638750e+01;2.348217168108637765e+01;6.506836509237560406e+00;3.036324649028031786e+01;5.637154525035897734e+01;-4.796822472423627914e+00;4.217172137407601440e+00;2.689151775751189177e+01;5.201922049746741550e+01;-1.653503160580548581e+00;3.816940632523991894e+01;7.401349140576607866e+00;-3.534746341605336539e+01;-4.469111088957123279e+00;5.336487436238881799e+01;-9.245050649596078074e+01;-2.415821650693767708e+01;5.818047476683827313e+01;-3.189604719689451784e+01;1.187495088070508586e+01;4.627032944856934193e+01;1.913537865465524135e+01
-2.733569372753672866e+01;-2.693187418433526759e+01;-1.111724213434829167e+01;-8.623104300273756451e+01;-3.037443402453958896e+01;-7.324877617688004250e+01;2.102700353691565738e+01;-2.757965839885174475e+01;2.219078774313850033e+01;-9.542725052624902560e+00;-2.299294886415321670e+01;-1.718576915616269574e+01;-2.507716566593655472e+01;-5.982341603663850549e+01;-6.379776398943140236e+01;1.300147358467823011e+01;-3.091029862835795328e+01;-1.593353420092525141e+01;-5.189594142095901219e+01;-5.770054663546196139e+01;-2.020879081984669412e+01;-6.706451842350944048e+01;-3.572688362256814543e+01;2.000699062094424718e+01;-1.872184902737999579e+01;-8.091669977851449858e+01;-3.778666841634918683e+01;-2.938518726068993203e+01;2.778872335246212444e+01;-5.031413258373800090e+01;-8.325953368663572007e+01;-3.621270543008887444e+01;-7.133549148563174924e+01;-5.102518771468110970e+01;-8.313936505504879904e+01;-2.097196940109776619e+01;-1.329513395975221002e+01;-5.566896195854995000e+01;-2.279165024790900063e+01;-5.714087440130347062e+01;4.007878120727249893e+01;-7.121469043675668331e+01;-3.900396584804650502e+01;-8.008117579569893962e+01;-3.643648746713097353e+01;2.560997797117099850e+01;-6.751527044459672311e+01;1.201492858219169690e+01;-3.368125643172952977e+01;-8.295965982196162258e+01;-6.259958360334357508e+01;-8.649716113675985696e+01;-5.570482405791875635e+01;-8.933304790526688066e+01;-3.490218725695083890e+01;2.706184160256111682e+01;-2.118665300389482908e+01;-8.808109472321680400e+00;-2.832932483249195599e+01;-1.089619694472385092e+01;-1.926880137126568826e+01;-7.045759933646608886e+01;5.886350447654086437e+00;-3.851339711377669772e+01;-2.754488006272002565e+01;-5.068669029180833263e+01;-1.832308972882673004e+01;-2.834553556583435707e+01;-4.254573833072952027e+01;-6.649524128683155766e+01;-2.157487469376986766e+01;4.595932841780683020e+01;-2.989312592650402678e+01;-2.258221378773257726e+01;-8.326917567642514939e+01;-3.899941716026158645e+01;-5.348507925858179846e+01;-2.087401963552436968e+01;-2.347294733553097856e+01;-4.606641630422556943e+01;-1.005378860738290747e+00;-1.783096143787025767e+01;7.891262409072082207e+00;-6.442809420705091838e+01;-4.942126294889384752e+01;-1.740972848257176864e+01;1.596404867932849569e+01;-5.727662709398992291e+01;-3.272115004155538287e+01;-1.714791161413954867e+01;-7.238938088333654264e+01;-3.621952201445401442e+01;-1.431142205186775129e+01;-9.065687586779726814e+01;-7.133977239246333113e+01;3.708681965586348639e+01;-4.704763685739607126e+01;-7.389110427503339906e+01;-1.841971326251440999e+01;-1.588800266236428627e+01
-1.396512509922073519e+01;2.600055140753374161e+01;2.187616125078228535e+01;-1.868563260576394924e+01;-1.071423301567133137e+02;-3.988798572835059275e+01;4.672744214323807199e+01;-6.962786398221163608e+01;1.207260868693023426e+01;4.453589176031427144e+01;-6.973968593607891897e+00;7.036536850141091293e+01;-4.766762254514558705e+00;-4.686604297043875533e+01;-5.512122663538866618e+01;1.133515560603349570e+02;-4.365840411654735220e+01;-1.127251908821365021e+02;-4.030165653088484845e+00;-8.721082929340721535e+01;3.014698798579993877e+01;-4.122738212743209374e+01;-5.116290059840003579e+01;7.075859991399468640e+01;-1.476901069045922270e+02;1.714819718939365600e+01;-1.059991213249388551e+02;-2.015897890705864199e+02;4.892442542251446014e+01;-6.385240667683378035e+01;-1.183156562870264423e+02;2.334526666101878423e+00;-1.130018511872020781e+01;-5.647423301720681188e+00;-1.446459473823119346e+01;-4.069165857058036551e+01;4.736971859668999585e+00;-1.320212719047093053e+01;-1.130747219982377594e+01;-8.145646131551222879e+01;7.247756809920569765e+01;-6.647925471080873194e+01;-1.162923554373387276e+02;-9.048872404327426011e+01;-6.824019518872712808e+01;3.378343245110183801e+01;-1.036548105877924684e+02;6.117299275645946466e+01;-3.415399436215534479e+01;-4.707745476765511938e+01;-4.143861128316896014e+00;-5.088010325430514769e+01;-3.111509554927310717e+01;-2.793569030513948519e+02;-2.676993930457338777e+01;5.926923589035877171e+01;-9.513105678765971618e+01;3.654049444144788339e+01;3.081922902246082785e+00;-2.008926804151695578e+01;-2.225748053442129404e+01;-1.013105850612656766e+01;2.593430519824793024e+01;-3.584133296671742386e+01;4.206436689403891904e+01;-1.390108288747527752e+02;-3.361883835085171057e+01;-6.949306968650981631e+00;-3.845583186640151752e+01;-2.195619987610706687e+02;-1.240760883720615766e+02;1.407616335880634608e+02;-4.906104000429811407e+01;-4.330686089744020961e+01;-3.923357622842065950e+01;-1.118020995898824310e+02;1.725316564629219229e+01;-1.513042822027951750e+01;-7.259211220598781544e+00;-1.512645584803389625e+02;1.932214969779318636e+01;9.366629635630157047e-01;5.659913863400452527e+01;-6.452365765040812562e+01;-9.928973016649769079e+01;-1.993940310760998713e+01;5.252592800310518584e+01;-2.871909041377914029e+00;-1.006423018101795748e+02;2.906128150282515588e+00;-4.423933525552889279e+01;-4.262827427901451927e+01;-7.616947712810168980e+01;-2.233889655988753020e+01;-5.136386031963929355e+01;4.817437050298784129e+01;-5.065188711011684575e+01;-1.596318215797574958e+01;5.124764344358183621e+01;-2.508265385674804193e+01
2.913797511587365079e+03;3.299619666776145550e+03;3.055787929002421151e+03;-1.673405768531046647e+02;2.560513314937670202e+03;9.998601841575045057e+00;3.087123098381258387e+03;2.500379156232232162e+03;-1.850501651560007303e+02;3.409561028252624510e+03;2.955256606581619508e+03;3.077853032844134304e+02;3.422368292780024603e+03;5.417865277679396740e+02;4.107626581219004720e+02;3.349540954730515296e+03;1.510665660409924840e+03;3.067174822404402221e+03;1.896997925029016642e+03;1.791163890317375035e+03;2.782664601223274531e+03;6.996135499223566967e+02;9.712672803859451278e+02;3.402288622363062132e+03;3.348222481591039923e+03;2.412994226515587002e+02;2.656121648137142984e+03;-1.058776167105748982e+02;-2.581051916907445332e+01;2.156099125059789458e+03;2.151808283776719236e+03;3.396836235937159927e+03;6.557724877406756150e+02;1.831222185706597827e+02;7.181889073682987146e+02;2.356840056546317555e+03;2.846748432011620025e+03;1.177340992191562009e+03;3.206510880915914640e+03;2.613718274133231034e+02;-2.123774981845398884e+02;2.029896104306386562e+01;2.361915577456091341e+03;7.161430206225214761e+02;6.774183756199798836e+02;-2.325099618265172978e+02;1.802261651877289751e+03;3.474002730453414642e+03;5.963349954802877306e+01;9.900009354955647041e+02;1.226775389591580279e+03;1.111921462965627683e+01;9.956438251892061544e+02;-2.444283542281487485e+02;2.555798347637296047e+03;2.933222243416078072e+03;2.448723529918125678e+03;3.324702731094670526e+03;3.338009702031586130e+03;3.447404479135743259e+03;3.068655876295189501e+03;9.396382126438942350e+01;3.455716205203618301e+03;1.689457543820501769e+03;3.391195622565285703e+03;2.337367503228207624e+03;3.069293075370663246e+03;3.408766186357679089e+03;1.386782925696983739e+03;-1.538562813563280827e+02;3.427579691815662500e+03;3.493996876005880495e+03;5.925195270819478992e+02;3.251081768129924967e+03;4.457938009366901611e+01;2.449969308130801892e+03;6.308033154187627360e+02;3.189430659934920186e+03;3.200339242761488549e+03;2.393990463035802350e+03;2.586817746872928183e+03;3.323704288933376120e+03;-1.179972095496323874e+02;6.107068087848908817e+02;-1.576085403444362214e+02;3.375467003020403354e+03;3.208288254942279764e+03;1.866943321187102356e+01;2.288173407308356218e+03;1.710499619330330461e+03;1.011557664798805490e+03;2.898178663151295495e+03;2.787253890975881859e+03;7.962511789568599170e+02;5.567215605823967906e+01;-2.040129376495431188e+02;7.236533469651393489e+02;6.821619522350567877e+02;3.446006717914697674e+03;3.038156935347690251e+03
3.538215543179168066e+01;3.168692943268268891e+01;2.983900067383128984e+01;-1.328296001638387338e+02;-1.586513077285810347e+01;-9.123182606966510377e+01;3.490515709799537802e+01;-5.579716880766565801e+00;3.069869967123587529e+01;4.688880084481706945e+01;1.557200548663315942e+01;-3.851116300769739098e+01;5.990958352260754083e+01;-6.588493850600258384e+01;-6.492683869228784488e+01;8.328293073625452791e+01;-4.596955601410224190e+00;-6.824304357996701320e+00;-7.506092610511897689e+00;-2.931488809143865737e+01;1.252686682876641200e+01;-2.876291895012109734e+01;-3.497893119384352900e+01;4.147718259960670650e+01;-3.533325786345437081e+01;-7.518397805543155243e+01;-1.585007562468062758e+01;9.946324279699954474e+00;2.368322211741937267e+01;-1.289317877134005741e+01;-2.917326002677780750e+01;5.579752890370513541e+01;-2.985307210142013901e+01;-8.578629462738393840e+01;-3.098195796564892035e+01;-8.202537809541672331e+00;-5.942863170006720264e-01;-4.397510233745927621e+01;2.477193927963863729e+00;-3.601745215994579752e+01;9.417835390107090632e+01;-6.889122902454467123e+01;-2.187194319995187897e+01;-8.174973317035987463e+01;-3.878670554357751854e+01;-2.460077399252739827e+00;-3.312900451696798143e+01;6.679066219440690588e+01;-1.427336694124579086e+00;-3.970550242277400343e+01;-1.384161928501189642e+01;-8.804624803813582901e+01;-2.860179670486397541e+01;-1.552126143449829954e+02;6.859868296091329309e-01;3.714012972749393526e+01;-1.990799190441845923e+01;5.484219924418693637e+01;3.994569466296111671e+01;2.760573040580285564e+01;7.739302869224066406e+00;-4.162804672435769504e+01;6.930992448189073230e+01;-2.251087353587859141e+01;3.372819305943507828e+01;-3.502216071939987785e+01;4.693909515896654838e+00;3.672165225192370031e+01;-1.770716104703539173e+01;-1.124786548569774567e+02;1.405492796519445919e+00;4.294968352528312749e+01;-2.948839540301612772e+01;5.484839111282026280e+00;-7.234279143730674377e+01;-2.044577568957150504e+01;-3.521384293544247157e+01;1.003511404424048159e+01;2.397185078332758401e+00;-3.096656053976147405e+01;-1.705386084463609464e+01;3.507460025207608822e+01;3.795150235891838975e+01;-4.215824030392881383e+01;-5.856939838738618676e+01;6.722005360072898839e+00;2.018577982237708568e+01;-2.182939181756209379e+01;-1.836951496332297040e+01;-2.457321739771954228e+01;-6.214199900522465470e+01;4.689705924531373249e+00;-1.458642626215074323e+01;-9.076989985565802499e+01;-6.079237951887368752e+01;2.313000796571066076e+01;-5.122289655015715226e+01;-2.073486955078776006e+01;6.105533394041905382e+01;3.977650493651269104e-01
2.617247195298780753e+03;2.961520763641521626e+03;2.744416075637514496e+03;-1.502948986323060865e+02;2.296709947855827977e+03;9.931340353598265835e+00;2.772633046850612573e+03;2.242996603284157118e+03;-1.658701356541445193e+02;3.059654460055522577e+03;2.653117492175028474e+03;2.761710319713974968e+02;3.071145162756279660e+03;4.847847386599550532e+02;3.665702189923533751e+02;3.009745388452407951e+03;1.356477441417232058e+03;2.751031185176688268e+03;1.702895280056220599e+03;1.607017936863644309e+03;2.498091531184380074e+03;6.250301663805146291e+02;8.718473903594131116e+02;3.055009276681120355e+03;3.003722540895700149e+03;2.143621314344081270e+02;2.381071095933360994e+03;-9.509807478148857740e+01;-2.274971195712796401e+01;1.933985626850959306e+03;1.929907119849147421e+03;3.049019984507746358e+03;5.884534169204216596e+02;1.642744543722100161e+02;6.427460738882485884e+02;2.116354381610233304e+03;2.556145354822554054e+03;1.054814055636662715e+03;2.876770405628680692e+03;2.321140462920126026e+02;-1.888762849873631353e+02;1.531770621791396891e+01;2.120426048412971795e+03;6.399166103010392135e+02;6.079342311545700568e+02;-2.094318025193471158e+02;1.614326841667515964e+03;3.118594443947404670e+03;5.415846349189262554e+01;8.878019746435485331e+02;1.102234185751375435e+03;1.086290745629653465e+01;8.937828324160032025e+02;-2.198832547789799889e+02;2.295416217415859592e+03;2.636728423073579052e+03;2.196304290201684125e+03;2.984252911943119216e+03;2.995453471668262864e+03;3.093131716131385474e+03;2.755792886624293260e+03;8.289420084511907305e+01;3.100488180347361777e+03;1.512858864717694132e+03;3.043840417785681893e+03;2.095288971048916210e+03;2.755183752115161042e+03;3.060095589898707658e+03;1.245473553740028592e+03;-1.390047303503437206e+02;3.076092321180085037e+03;3.135100698165565973e+03;5.326157970212524333e+02;2.917876440368434032e+03;3.883625379630755248e+01;2.197627878744644931e+03;5.629182540188608073e+02;2.862438327469366413e+03;2.872308861099029400e+03;2.145619714654939344e+03;2.321352700030526194e+03;2.981880381732909427e+03;-1.054889228197472448e+02;5.472528043299780620e+02;-1.411328526294208814e+02;3.029982508943018729e+03;2.880860965824925188e+03;1.609661802122850105e+01;2.055758042788438161e+03;1.538920684148971986e+03;9.040730370553465036e+02;2.601739599728945450e+03;2.501562974327212032e+03;7.110545219440517712e+02;4.879138205579587861e+01;-1.823590075440720000e+02;6.500383313979091326e+02;6.123696810962725294e+02;3.092482670710430284e+03;2.727169500697173589e+03
4.644493336034998379e+02;5.184079627240940908e+02;4.903697512684696562e+02;-2.645601633962827748e+01;3.941960867139908373e+02;5.499905273279058981e+00;4.967758099736707891e+02;3.888527939024262423e+02;-2.117379807075370834e+01;5.364794346674591452e+02;4.655906452109800853e+02;4.606477583276812027e+01;5.382333659306120808e+02;7.375736204413266250e+01;5.358003741462995606e+01;5.562834497963823424e+02;2.516497532311758221e+02;4.765742422743078350e+02;2.975603990464650224e+02;2.730453648462682281e+02;4.399114629579579514e+02;1.074067475166099257e+02;1.587833967157550319e+02;5.553835234737855444e+02;5.097220550336159590e+02;2.416148091753413851e+01;4.040854691223715918e+02;-1.301746429063400612e+01;5.044743511888816201e-01;3.280703911037122111e+02;3.107476869454903294e+02;5.412093071751291973e+02;9.827492813435287644e+01;2.455135887349624113e+01;1.051019915285666002e+02;3.747245668296201870e+02;4.512830454365534933e+02;1.738658716725900604e+02;5.018998970102625208e+02;3.674594460005950225e+01;-8.309373071731329219e+00;-8.562423479603761933e+00;3.620013417340707065e+02;9.768066112007315382e+01;1.151027150002612842e+02;-3.321903248562608013e+01;2.706216302535509612e+02;5.570834637277688444e+02;1.027137448969040356e+01;1.501466675253308267e+02;1.985859402361795389e+02;2.806726768679596695e+00;1.597184938798058340e+02;-4.320632732519758434e+01;4.087741830507963527e+02;4.866299853916585221e+02;3.891234313923176842e+02;5.212286522772018316e+02;5.256095839256419140e+02;5.395557717765219650e+02;4.945672359986407400e+02;1.321087041722449840e+00;5.508153264597901853e+02;2.634951254005582086e+02;5.313903642722950735e+02;3.468785400159223968e+02;4.806284873162216513e+02;5.451344645257968295e+02;2.252494434004944992e+02;-2.242058480587160574e+01;5.275209574808387742e+02;5.535470058720825364e+02;9.825393319132615488e+01;5.043229418335868672e+02;-7.789771902484208255e+00;3.779522632897812855e+02;8.658574790038608171e+01;5.022682028010587487e+02;5.054651619733664916e+02;3.592603685710034824e+02;4.152763818699626768e+02;5.223889405861646082e+02;-1.266038299039176351e+01;8.641221849760910345e+01;-2.383266571924893640e+01;5.336593297433021235e+02;5.226408001040243789e+02;3.071906564265654893e+00;3.644383131071089679e+02;2.777293012104547643e+02;1.487009299594463982e+02;4.720859965040268662e+02;4.364632389858320494e+02;1.030855355813111487e+02;1.747006389710410446e-01;-2.624823473347425917e+01;1.158397076967967934e+02;1.046226939284278643e+02;5.399995117450067710e+02;4.812540042435396117e+02
2.841243434927574981e+03;3.217517911408310738e+03;2.978393936059031148e+03;-1.628215393404613280e+02;2.495694169109269751e+03;1.063601289635226976e+01;3.008107543529839859e+03;2.437728121791369176e+03;-1.810592935264284336e+02;3.323645456350599034e+03;2.880576234732518969e+03;3.006970229170185576e+02;3.336001485376772507e+03;5.279741703179315664e+02;4.003625265681238830e+02;3.265823523495922473e+03;1.468860747520605855e+03;2.989104335205355255e+03;1.848721384397830434e+03;1.745656606019572337e+03;2.713091089294530775e+03;6.822432061674918486e+02;9.476256356926928675e+02;3.316732155146253717e+03;3.263035617018609628e+03;2.366430124556342207e+02;2.587632036355131277e+03;-1.040260919525367598e+02;-2.560667235919353502e+01;2.100804376681148824e+03;2.098401556986998457e+03;3.311834296427181926e+03;6.395936170468914952e+02;1.792903131855449885e+02;6.975578589063691197e+02;2.296477340882518092e+03;2.774879444152252745e+03;1.149317714191367486e+03;3.125105430185451951e+03;2.515362672497004439e+02;-2.081963371708822308e+02;1.937613060587809599e+01;2.302338898788741062e+03;6.957621627481863698e+02;6.604972471632662518e+02;-2.279181746597538165e+02;1.753174508231657001e+03;3.385298196760379142e+03;5.916860620180090535e+01;9.648233827832174256e+02;1.197451702899288421e+03;1.135875638736390414e+01;9.695582976474190673e+02;-2.387733443650370759e+02;2.491980158596362799e+03;2.859635693922061819e+03;2.384302401544357508e+03;3.242258363591799935e+03;3.254062751096155353e+03;3.360581443978744574e+03;2.990601137600664970e+03;9.122200042510985440e+01;3.368076958670664226e+03;1.644230548642407484e+03;3.306439497663697239e+03;2.277651378009667496e+03;2.992485458662762539e+03;3.322643752381030936e+03;1.353123295005369300e+03;-1.519381135327793686e+02;3.341327639186030410e+03;3.404202469993740579e+03;5.773551564511617471e+02;3.168499055692040656e+03;4.201741844665252046e+01;2.390794228598148038e+03;6.145009618584481359e+02;3.108223461630667771e+03;3.119914880039456875e+03;2.332953921653990619e+03;2.522019301400178847e+03;3.240313177881066622e+03;-1.166101460993366175e+02;5.953998566133061559e+02;-1.537533232832801104e+02;3.289905815744895790e+03;3.126728510324560375e+03;1.710026242565964694e+01;2.232240620560715342e+03;1.669648620495292562e+03;9.837659724384039919e+02;2.823502183100588809e+03;2.718251400289534558e+03;7.743903820302488157e+02;5.443540577762668420e+01;-1.990535788422102996e+02;7.050430773378923277e+02;6.667637229076403855e+02;3.358420113516995571e+03;2.960901695348731664e+03
2.920210658558161413e+03;3.307567639890815371e+03;3.061920929474625154e+03;-1.672277735428289134e+02;2.569772895937398971e+03;8.737804826330767938e+00;3.090166904434109711e+03;2.506839525931988192e+03;-1.884525134952060057e+02;3.417191091444268295e+03;2.961200541922418324e+03;3.098777434192300007e+02;3.429438350973066463e+03;5.467763269689959316e+02;4.132768401788861752e+02;3.351839812889624682e+03;1.508611284687555326e+03;3.073521901766672727e+03;1.902547887549457982e+03;1.795602903783371175e+03;2.789441038077370195e+03;7.019354364265458344e+02;9.732286856121032770e+02;3.405801937195376922e+03;3.357807045797091632e+03;2.447457871706046433e+02;2.663211463321870724e+03;-1.073191280603854949e+02;-2.674458676270637980e+01;2.162931275147279848e+03;2.160983135555439731e+03;3.402880058725554136e+03;6.578659343430500712e+02;1.851961833489990568e+02;7.210397202368404805e+02;2.360260354794306750e+03;2.853086797152319832e+03;1.181866920778898702e+03;3.214712679300379023e+03;2.621427296435822427e+02;-2.188503404387340368e+02;2.073804553856036748e+01;2.368572209744180782e+03;7.191885781406326714e+02;6.762622389108122434e+02;-2.346981672391872848e+02;1.804643901010873378e+03;3.478178805563974038e+03;6.012666895862569305e+01;9.915515488537786268e+02;1.228618072272644213e+03;1.063125314660340592e+01;9.986957438157137403e+02;-2.446838802624029370e+02;2.561812682592810233e+03;2.935114215831767524e+03;2.450323531296735837e+03;3.332203214677889264e+03;3.346644627460992979e+03;3.455727571675824038e+03;3.072470341597490005e+03;9.610217384385214245e+01;3.460835712892425363e+03;1.692641635097833614e+03;3.399212893576962415e+03;2.345121115259502858e+03;3.076082895668864239e+03;3.416298572934738331e+03;1.389872151906760791e+03;-1.561859676500200180e+02;3.437217016064621475e+03;3.500262743226662678e+03;5.915087280252412256e+02;3.260308694351204849e+03;4.752559128153878731e+01;2.458631538691533478e+03;6.339212865282086113e+02;3.197451006976352346e+03;3.206013829864203672e+03;2.402014690561897623e+03;2.592094417095007884e+03;3.330709702965707038e+03;-1.198754509780714841e+02;6.142571239380262114e+02;-1.589457086059953212e+02;3.382593245102826131e+03;3.211138767204271971e+03;1.817577550970315770e+01;2.292299366768760592e+03;1.711912817026198127e+03;1.016393422296571202e+03;2.901116925472247658e+03;2.793724525541625553e+03;8.005220043351367849e+02;5.832186237672081575e+01;-2.042470819161025304e+02;7.237223151370826599e+02;6.843021689799979868e+02;3.454698790641384676e+03;3.043976309511470845e+03
6.130034585777641709e+00;-1.356158251811532267e+01;-6.123883601203664817e+00;5.167009253614309472e+01;-2.037263737652372413e+02;4.143116019125672267e+01;-3.737802187125974740e+01;-1.667942499549530169e+02;-4.600515861790634986e+00;-2.482402989909428470e+01;-1.301436643179930108e+01;-2.330551437890747701e-01;-7.326453382078782717e+00;-7.763889529021385272e+01;-4.587675694568519447e+01;-4.279023627874838098e+01;-8.312179593132916011e+01;-2.502928743685652933e+02;-4.590559267142888444e+01;-1.140121632296450400e+02;-2.529753702156691020e+01;-3.347703741789172227e+01;-2.450647975516053378e+01;-3.033998457226057610e+01;-3.504525941052293661e+02;-8.585049187453712705e+00;-2.418578895183736392e+02;-3.113651668643786934e+02;5.700927076188395226e+00;-1.632571291671641802e+02;-1.979524600514520785e+02;3.254881813045896877e+01;-2.337881846632966898e+01;-9.442371270405777750e+01;-2.097655209798479348e+01;-1.284007553300723714e+02;-1.034554043866180351e+01;-1.072496937680154083e+01;-7.808618570120813729e+01;-8.889470660934533441e+01;1.513498958633397073e+01;-4.164806570516277162e+01;-1.897607384850481367e+02;-4.731340756640491207e+01;-2.478350157566622869e+01;7.019885056884815455e+00;-1.164520671804484380e+02;-3.516207760322534170e+01;-1.352987668307555680e+02;-2.162550890055473829e+01;-4.793067558231679470e+01;5.516470267665601313e+01;-2.470431155939112244e+01;-3.293119833543267987e+02;-1.226886049105398797e+02;-2.049738258265897883e+01;-1.732546284643953811e+02;-1.549544233614819788e+01;-4.504468354759417537e+00;-1.224101949128347115e+02;-2.650282748666478128e+01;-9.702814745623310699e+00;-3.514920499560684863e+00;-3.279311264554833372e+01;-1.763938184334819681e+01;-2.051427481664533730e+02;-1.860375325511903100e+02;3.950617478520909831e+00;-3.573251757749463309e+01;-2.796218481912787297e+02;-3.657400765132022684e+02;-3.425956514432867550e+01;-4.696963403736215525e+01;-1.931711545793113771e+02;-1.255809853763079964e+01;-2.150309071825861906e+02;-3.360198087536516454e+01;-1.170465483761369399e+02;-6.163881088210463588e+01;-2.768211583468777235e+02;-1.281137470551123592e+01;-2.361626359759459781e+00;-2.778472443962069161e+00;-8.277183732895468893e+01;-2.114299184572230956e+02;-6.281154950237755941e+01;-3.335144009071105131e+01;-8.063766252216018060e+00;-1.639186808471717711e+02;-1.545319913720260008e+00;-4.021608538535954835e+01;-1.732847164665762563e+01;-1.347284792952112298e+02;1.206526527953060857e+01;-3.208918641342177125e+01;5.564458310492454096e+00;-4.552676384622957073e+01;-2.694055310440225171e+01;-1.756996287446583693e+01;-6.802898097421989121e+01
2.607330145381263975e+01;9.373332912805908634e+00;2.426915522200082620e+01;5.727393710231397250e+01;-1.983668266157523306e+02;5.571304790768557780e+01;1.044361247782942259e+00;-1.663217285112176285e+02;-3.180924911161739033e+01;1.324200094746156786e+01;2.061354157157840916e+01;1.288651485024362309e+01;2.308931489219239097e+01;-4.160500405206007457e+01;-1.349467105693695679e+01;-8.769525771685222182e+00;-3.582621001109427539e+01;-2.437466035843501118e+02;-3.140719025036869994e+01;-9.430261078866135449e+01;-5.501646918539981002e+00;-3.676010659136068170e+00;-4.799897778332776532e+00;-1.248942290148157497e+01;-3.405708093648447061e+02;3.795266316755536451e+01;-2.293047225897639976e+02;-2.949406637709241750e+02;-3.124306229824552261e+01;-1.534515626504140755e+02;-1.845630051925496105e+02;6.247196073140023742e+01;5.322825941463912969e+00;-6.699458330435854236e+01;7.417510936847185654e+00;-1.120237252717745093e+02;2.573672036554156506e+01;1.673387163166739100e+01;-7.210460312156035911e+01;-5.467403409975897688e+01;-2.797860527464274583e+01;-1.209786393534444571e+01;-1.809628724751187292e+02;-1.143466135523418714e+01;-6.175760236129846703e+00;-2.709811724858725768e+01;-9.689737904001083280e+01;-1.132884018005930038e+01;-1.024835277927320334e+02;1.256160303740777096e+01;-2.171398877922136350e+01;5.647270023139511608e+01;1.929597311539618554e+00;-3.283832524753411235e+02;-9.717764617281463302e+01;2.115917792329498504e+00;-1.536047276671770021e+02;-5.437589338084483082e+00;9.210140029602079892e+00;-9.118520503014320866e+01;-7.969214920037377858e+00;6.504927222725818581e+00;1.145179739232803406e+01;-2.911799789248886583e+01;-1.983422349529625484e+00;-2.013662178242092295e+02;-1.766825171217759873e+02;3.780594933051781936e+01;-1.610454971575559391e+00;-2.678234478939876340e+02;-3.460991938327037474e+02;-1.839296119332318113e+01;-1.782832108679737004e+01;-1.873083035212945617e+02;2.376501926014073263e+01;-2.018686684363053132e+02;-6.666603325748719833e+00;-1.158643470110897340e+02;-3.736338578555851342e+01;-2.570157828921190344e+02;2.846409505984235722e+01;7.693351724515614443e+00;-2.266165410134470903e+01;-3.625341649042313463e+01;-2.029388864005991877e+02;-4.208926291961936528e+01;1.230301678904628915e+01;1.798871248976040960e+01;-1.413666648891067723e+02;2.166634324489636398e+01;-1.312833219598573997e+01;9.017081691862964377e+00;-1.331962377568218585e+02;4.506515192377372614e+01;3.513630890955568908e+00;-2.617998497622209442e+01;-2.108637768764225484e+01;1.652789532475102130e-01;-4.410242770665107948e+00;-4.632874160044055145e+01
2.862948556182069296e+03;3.239144622519312179e+03;3.000878299671779132e+03;-1.639800745174513281e+02;2.513661210855893387e+03;9.235078863996523779e+00;3.032160157605456334e+03;2.455547523987979730e+03;-1.818051524622974284e+02;3.347327243818976058e+03;2.900158278380822139e+03;3.034432341314670794e+02;3.359597286573189194e+03;5.314294560701808905e+02;4.012203110059633673e+02;3.292210146693319075e+03;1.482174208953961852e+03;3.009487473887799752e+03;1.861062621738834650e+03;1.758040762981145008e+03;2.731164446374644285e+03;6.839630546265144631e+02;9.539808557012287338e+02;3.342353194282360164e+03;3.284864592805673055e+03;2.366096913076385135e+02;2.606049733372547053e+03;-1.051910420119764638e+02;-2.490915172230875996e+01;2.116301902265244280e+03;2.109299390161077554e+03;3.335233528510181259e+03;6.450405720336891591e+02;1.803825604079463858e+02;7.016425577583230506e+02;2.314930843252225714e+03;2.795177434483022807e+03;1.154883916378906406e+03;3.146752289321555509e+03;2.541515251160209345e+02;-2.055433568506027200e+02;1.657148411052462222e+01;2.317769535109706794e+03;6.991152504368404834e+02;6.670131081831400479e+02;-2.278045435878577223e+02;1.766279459887385201e+03;3.410599225779217704e+03;5.882704622963630925e+01;9.704913198333546234e+02;1.205477187968881026e+03;1.036237597866449534e+01;9.786321947922260733e+02;-2.400212710169403465e+02;2.509908386634127964e+03;2.885749364230695392e+03;2.401415207738737081e+03;3.264154104109564287e+03;3.276764383926401933e+03;3.383235557794639135e+03;3.012523135030272442e+03;9.136550878435497225e+01;3.393042353158703463e+03;1.656835515190813567e+03;3.328524421791461918e+03;2.291234572300043510e+03;3.014153197870146869e+03;3.348050695222033482e+03;1.361782410846392850e+03;-1.527199930935407224e+02;3.363191174918760225e+03;3.430741001576703184e+03;5.823631280247234372e+02;3.189728314346005845e+03;4.079428039080816148e+01;2.404694079993229479e+03;6.175403075912059876e+02;3.130966406526563333e+03;3.142111634179431803e+03;2.346035402294006872e+03;2.541761595838081121e+03;3.262430642808099947e+03;-1.165926296203045069e+02;5.986515250320741188e+02;-1.538313509038488860e+02;3.314474142914114054e+03;3.152342531202808914e+03;1.818711415640195739e+01;2.247098049562995584e+03;1.680616381863340621e+03;9.895236367460970541e+02;2.846801308378529484e+03;2.736166659381176942e+03;7.780898387502182914e+02;5.383202279177899641e+01;-1.994390859397359748e+02;7.105495488672960391e+02;6.714733680737246004e+02;3.382471050510613168e+03;2.983360150238879669e+03
3.052520601804504352e+01;3.258953490403571607e+01;2.352439701986007847e+01;2.409517450857428855e+01;-1.892916576185410804e+01;3.875983022084123064e+01;2.573664957241135198e+01;-1.914854330783774117e+01;2.071000847856974048e+01;2.893855585263278130e+01;3.459013207251867073e+01;-3.226093826859836611e+01;3.682135541682983870e+01;-4.514742967373059912e+01;-3.582849240396564028e+01;2.299305425746226206e+01;-1.173689425628837313e+01;-8.147367572740954245e+00;-1.659576372008868361e+01;-4.828021121461600274e+01;2.614774195980329097e+01;-3.263260386027253901e+01;-2.221222686712251004e+01;2.409336634846778225e+01;-3.527594816086902085e+01;-5.364272469342630956e+01;-3.323468842407414314e+01;-1.922097592857656068e+01;1.895579514124309028e+01;-4.855804254914837514e+01;-5.094157199844111261e+01;3.251882736284247244e+01;-4.255922630805615370e+01;-5.104412348989301762e+01;-4.541093581532122414e+01;-2.220782143232877814e+01;2.604893113925568571e+01;-3.687618417480315713e+01;4.920356873808302112e+00;-2.951016716458681088e+01;1.934546002933126729e+00;-5.147879242889712259e+01;-2.972836609823597698e+01;-4.629057141045765178e+01;-4.792663395054511710e+01;1.624639956084046943e+01;-4.616757727673226697e+01;2.479984419296276954e+01;-2.683539668040218373e+01;-3.932980892587848842e+01;-3.235500740584161861e+01;2.575118558780308220e+01;-4.269135269857981996e+01;1.380007507924773691e+01;-1.849893803178826346e+01;1.639374608074431450e+01;-2.051111598853923468e+01;4.155707299193807813e+01;2.026715791350027729e+01;8.903238181559878228e+00;-1.237795450807446329e+01;-4.455777487240788304e+01;8.532569845660658459e+00;-2.795299486583551385e+01;4.031359859562363823e+01;-2.979170734935506459e+01;-9.134229735227833658e+00;3.747935012044128200e+01;-2.185036547014754404e+01;2.986473451992366357e+00;-3.582176366770046627e+01;9.024915150845120593e+01;-2.613049018924857592e+01;-2.347779127555691758e+01;-6.063187315177268033e+01;-3.667540822680803103e+01;-3.792844245635156142e+01;5.959147223277142302e+00;-5.497043944606012644e+00;-5.607247951535539698e+01;1.389988908811395163e+01;2.802141194341999508e+01;-6.818162445703912056e+00;-3.177011689034743824e+01;-3.790703443845171705e+01;1.173043800283549842e+01;1.406561432733779959e+01;-2.774659788582645703e+01;-2.801922677428363784e+01;-2.448871751349990689e+01;-3.484232438367315154e+01;-7.805575121986391807e+00;-4.158620439065195740e+00;-6.055917596012015736e+01;-5.085871840433607360e+01;1.299888702045466715e+01;-3.393235772595758704e+01;-3.550789621274930141e+01;4.253836664929993105e+01;-3.907219477094201920e+00
-6.610542377683384530e+01;2.648185395715152168e+01;-1.595742115192174460e+01;1.766046517785335013e+01;-1.045492475203924130e+02;1.336259290264616872e+01;4.352855811015146514e+01;-8.232793991160200164e+01;8.465255372027159808e+01;6.301912280550217105e+01;-3.463072798132658647e+01;2.331608601904193634e+01;-1.728655252696545830e+01;-8.971524326828087226e+01;-6.032542913227600678e+01;9.649684644534423228e+01;-2.132978039938572934e+01;-1.117403175349446798e+02;-4.819079243559439618e+01;-9.384590869596001994e+01;2.696630583295318218e+01;-5.064146053592464369e+01;-5.006150858755918165e+01;6.263277305836142261e+01;-1.580845647773242320e+02;-2.433058937468197414e+01;-1.221888210888102861e+02;-1.820709344906801164e+02;1.121358004673152067e+02;-1.120406629105579555e+02;-1.285623898576764645e+02;-4.055858477429860720e+00;-4.548389088194964813e+01;-9.016651832161116431e+01;-6.431839812400704659e+01;-7.086718196688474336e+01;-4.447525209149763015e+01;-5.999729527821403252e+01;-3.921494392113446281e+01;-7.180464430287943856e+01;1.371295530386871064e+02;-8.060010478303863124e+01;-1.059536448108986946e+02;-1.097435129571523049e+02;-6.981621997353984455e+01;1.046466337525819199e+02;-1.013251713464213424e+02;5.233930691050375117e+01;-4.109413569608709338e+01;-6.266066237359739688e+01;-4.716208218274023523e+01;2.548056122001937762e+00;-5.495099546731822215e+01;-1.680013506435305430e+02;-7.319202192019989184e+01;6.738209299736935520e+01;-9.755487086529390695e+01;3.574074796842150192e+01;-2.584794215064828204e+00;-4.528920084642390975e+01;-3.882616260280733655e+01;-5.933279127639129058e+01;-3.543872623529512111e+01;-5.668458701788584619e+01;9.747149444944069430e+00;-1.172720926081296255e+02;-8.033498590894089375e+01;-2.447173697627668432e+01;-4.871627669303552466e+01;-1.815811017936838425e+02;-1.631534251183883271e+02;1.007955246676367409e+02;-5.869383178131327838e+01;-8.711653725094004130e+01;-8.917191695417217545e+01;-1.232974564444126742e+02;-3.537505901355175553e+01;-5.092505944654580219e+01;-3.654747861352397109e+01;-1.599537910590113370e+02;9.511513478227431873e-02;-1.714851621142219429e+01;8.358447001953081212e+01;-6.801304419721611794e+01;-1.396392753285722961e+02;-5.165489621789971153e+01;5.969095595284520073e+01;-4.289870338538418082e+01;-9.630043048634256309e+01;-2.761554503370927804e+01;-7.607638135487542286e+01;-5.565105983194289507e+01;-7.296564559237856429e+01;-5.563830731017947073e+01;-7.899493352067237595e+01;1.009714479070388222e+02;-8.244164976451763494e+01;-5.311746016398043224e+01;4.258061053358046166e+01;-6.329384427093643950e+01
2.911134691844408735e+03;3.295323415531921910e+03;3.052522275480176631e+03;-1.663174939232128509e+02;2.556402832521990149e+03;1.061977208457797239e+01;3.083102564332312795e+03;2.497336276323123002e+03;-1.845026923381538495e+02;3.404469427810913203e+03;2.951374949452910641e+03;3.087598670063840700e+02;3.417645567303775351e+03;5.406043571550322895e+02;4.088044863624948562e+02;3.347944302443775086e+03;1.506848845695840964e+03;3.062591235398087520e+03;1.893836959495860810e+03;1.789952169015681648e+03;2.778341282659040189e+03;6.959243388291724841e+02;9.711789196059687583e+02;3.398891613738146134e+03;3.341999301005464986e+03;2.395878242081127212e+02;2.651364151721128565e+03;-1.064282598460953295e+02;-2.530339517152614803e+01;2.153692373977205989e+03;2.145724985913916953e+03;3.392525178953831073e+03;6.549996274322153340e+02;1.827562945539094699e+02;7.124093029030780144e+02;2.354851000851019307e+03;2.842984680408083022e+03;1.175316118259482209e+03;3.201378306757508653e+03;2.592373788037382383e+02;-2.107825815673809871e+02;1.825864185433169951e+01;2.357817051623553198e+03;7.094802239662172951e+02;6.774106847974984476e+02;-2.324752955467192237e+02;1.795527947930100709e+03;3.468057191601597879e+03;5.994436567572402907e+01;9.868444176315445020e+02;1.226216908530456749e+03;1.132468112470054145e+01;9.945477968776926900e+02;-2.445889136467029630e+02;2.552531174253209429e+03;2.933928550898960111e+03;2.442979581887795575e+03;3.320255949009750111e+03;3.333985781857762959e+03;3.440880665796990797e+03;3.065253136710377021e+03;9.265427229553255017e+01;3.450680708891055019e+03;1.685524904052220791e+03;3.385569457775575756e+03;2.329934359067173773e+03;3.065551806084068176e+03;3.406312287667662531e+03;1.387088761417780916e+03;-1.547050767669861955e+02;3.421904473152409537e+03;3.488828305916226782e+03;5.926768958806160299e+02;3.247022364495882357e+03;4.278742488400280308e+01;2.448204324992053898e+03;6.285919315164612726e+02;3.184753024817459391e+03;3.196561255343314315e+03;2.387421161203349584e+03;2.586151740899181732e+03;3.319379806715183349e+03;-1.184758291541108264e+02;6.098368322666957511e+02;-1.577365816179906801e+02;3.371267795706110064e+03;3.206511824768231691e+03;1.789275289086265630e+01;2.287617583034490963e+03;1.711155261779028478e+03;1.006345707081374144e+03;2.895314409650647576e+03;2.784137048915281412e+03;7.922473641428535984e+02;5.478355859059050204e+01;-2.018734114722200559e+02;7.228015617364316086e+02;6.828743012161559136e+02;3.440435847000397644e+03;3.034449079066224385e+03
